{"learner":{"attributes":{"scikit_learn":"{\"_estimator_type\": \"regressor\"}"},"feature_names":["a.g.","Model","Buraxılış ili","Marka","Litr"],"feature_types":["int","int","int","int","float"],"gradient_booster":{"model":{"gbtree_model_param":{"num_parallel_tree":"1","num_trees":"100"},"iteration_indptr":[0,1,2,3,4,5,6,7,8,9,10,11,12,13,14,15,16,17,18,19,20,21,22,23,24,25,26,27,28,29,30,31,32,33,34,35,36,37,38,39,40,41,42,43,44,45,46,47,48,49,50,51,52,53,54,55,56,57,58,59,60,61,62,63,64,65,66,67,68,69,70,71,72,73,74,75,76,77,78,79,80,81,82,83,84,85,86,87,88,89,90,91,92,93,94,95,96,97,98,99,100],"tree_info":[0,0,0,0,0,0,0,0,0,0,0,0,0,0,0,0,0,0,0,0,0,0,0,0,0,0,0,0,0,0,0,0,0,0,0,0,0,0,0,0,0,0,0,0,0,0,0,0,0,0,0,0,0,0,0,0,0,0,0,0,0,0,0,0,0,0,0,0,0,0,0,0,0,0,0,0,0,0,0,0,0,0,0,0,0,0,0,0,0,0,0,0,0,0,0,0,0,0,0,0],"trees":[{"base_weights":[-1.6355378E-4,-9.367979E3,7.610815E4,-1.7041592E4,1.9130059E4,3.5860426E4,1.786191E5,2.1131314E5,-1.729561E4,1.59013E3,3.969183E4,9.951372E3,5.9462473E4,1.5775522E5,3.4989453E5,-2.3490234E4,-7.5223926E3,-8.6545625E3,1.5631143E4,3.3062535E4,9.7582625E4,-2.3843056E2,2.1588227E4,5.2205984E4,1.13849016E5,9.115356E4,1.824232E5,7.1623875E4,4.1548688E5,-3.0221666E4,-2.1811682E4,-1.6320026E4,-1.3189597E3,-1.5573225E4,-4.2349473E3,4.305911E3,2.421866E4,1.6415342E4,4.0668785E4,7.68728E4,1.2848483E5,-1.0997508E4,6.900125E3,1.183483E4,2.7153865E4,3.8441695E4,7.229334E4,6.694221E4,9.810571E4,8.158578E4,1.3843211E5,1.3280188E5,2.2107416E5,2.5163139E4,1.29954625E5,4.16085E3,-9.111457E3,-7.607639E3,-5.92058E3,-6.63989E3,-3.3865344E3,-1.7743529E3,4.208992E3,-8.213648E3,-3.9836296E3,-3.2104653E3,2.1781538E3,-3.7234625E2,5.3092515E3,5.2091206E3,8.927443E3,3.4438838E3,8.193694E3,7.7788164E3,1.3738381E4,1.9675482E4,3.294655E4,3.182286E4,6.1760277E4,-4.1659307E3,-3.8467972E2,1.2115715E3,5.5756816E3,6.8898066E3,9.583307E2,1.8785852E4,7.68564E3,7.9969907E3,1.5974318E4,1.8634816E4,3.348878E4,2.4920785E4,4.7081062E4,1.73069E4,2.678921E4,4.6928594E4,1.5088851E4,2.9589283E4,4.801888E4,7.035166E4,3.971103E4],"categories":[],"categories_nodes":[],"categories_segments":[],"categories_sizes":[],"default_left":[0,0,0,0,0,0,0,0,0,0,0,0,0,0,0,0,0,0,0,0,0,0,0,0,0,0,0,0,0,0,0,0,0,0,0,0,0,0,0,0,0,0,0,0,0,0,0,0,0,0,0,0,0,0,0,0,0,0,0,0,0,0,0,0,0,0,0,0,0,0,0,0,0,0,0,0,0,0,0,0,0,0,0,0,0,0,0,0,0,0,0,0,0,0,0,0,0,0,0,0,0],"id":0,"left_children":[1,3,5,7,9,11,13,-1,15,17,19,21,23,25,27,29,31,33,35,37,39,41,43,45,47,49,51,-1,53,55,57,59,61,63,65,67,69,71,73,75,77,79,81,83,85,87,89,-1,91,93,95,97,99,-1,-1,-1,-1,-1,-1,-1,-1,-1,-1,-1,-1,-1,-1,-1,-1,-1,-1,-1,-1,-1,-1,-1,-1,-1,-1,-1,-1,-1,-1,-1,-1,-1,-1,-1,-1,-1,-1,-1,-1,-1,-1,-1,-1,-1,-1,-1,-1],"loss_changes":[5.705262E12,1.5584418E12,3.611949E12,1.04096163E12,5.4524268E11,3.8526897E11,8.2744915E11,0E0,3.3964242E11,1.1765735E11,2.6388103E11,3.581548E10,1.2429256E11,3.4810207E11,9.035632E10,3.8153093E10,1.1889856E11,1.4397354E10,3.3448894E10,7.859824E10,3.5561538E10,1.2518176E10,7.3326633E9,7.823196E10,4.349195E10,1.6751657E10,2.7942506E11,0E0,5.1684573E10,4.9340744E9,1.9776143E10,2.6102841E10,9.029952E10,4.620546E9,2.163531E10,1.116457E10,6.925951E9,1.0335797E10,3.1224234E10,9.533948E9,2.4981471E10,1.8065244E9,3.2019261E9,5.0240645E9,3.2411034E9,2.929084E10,4.0305295E10,0E0,1.7924719E10,4.7994307E9,6.40752E9,5.221502E10,7.499442E10,0E0,0E0,0E0,0E0,0E0,0E0,0E0,0E0,0E0,0E0,0E0,0E0,0E0,0E0,0E0,0E0,0E0,0E0,0E0,0E0,0E0,0E0,0E0,0E0,0E0,0E0,0E0,0E0,0E0,0E0,0E0,0E0,0E0,0E0,0E0,0E0,0E0,0E0,0E0,0E0,0E0,0E0,0E0,0E0,0E0,0E0,0E0,0E0],"parents":[2147483647,0,0,1,1,2,2,3,3,4,4,5,5,6,6,8,8,9,9,10,10,11,11,12,12,13,13,14,14,15,15,16,16,17,17,18,18,19,19,20,20,21,21,22,22,23,23,24,24,25,25,26,26,28,28,29,29,30,30,31,31,32,32,33,33,34,34,35,35,36,36,37,37,38,38,39,39,40,40,41,41,42,42,43,43,44,44,45,45,46,46,48,48,49,49,50,50,51,51,52,52],"right_children":[2,4,6,8,10,12,14,-1,16,18,20,22,24,26,28,30,32,34,36,38,40,42,44,46,48,50,52,-1,54,56,58,60,62,64,66,68,70,72,74,76,78,80,82,84,86,88,90,-1,92,94,96,98,100,-1,-1,-1,-1,-1,-1,-1,-1,-1,-1,-1,-1,-1,-1,-1,-1,-1,-1,-1,-1,-1,-1,-1,-1,-1,-1,-1,-1,-1,-1,-1,-1,-1,-1,-1,-1,-1,-1,-1,-1,-1,-1,-1,-1,-1,-1,-1,-1],"split_conditions":[2.92E2,2.016E3,2.019E3,1.939E3,1.9E2,2.013E3,3.7E0,2.1131314E5,1.63E2,2E0,2.6E0,5E0,5.44E2,2.8E0,2.022E3,9.8E1,2.01E3,1.16E2,2.019E3,2.019E3,2.02E3,2.009E3,3.96E2,2.016E3,2.07E2,6.82E2,2.022E3,7.1623875E4,3.6E2,1.963E3,2.007E3,2.006E3,2.6E0,8E-1,2.021E3,5.5E1,2.021E3,5.5E1,4.1E1,4.2E0,6.7E2,3.83E2,4.15E2,5.9E1,4.05E2,6.7E2,3.7E0,6.694221E4,2.017E3,2.021E3,1E-1,3.67E2,6.9E1,2.5163139E4,1.29954625E5,4.16085E3,-9.111457E3,-7.607639E3,-5.92058E3,-6.63989E3,-3.3865344E3,-1.7743529E3,4.208992E3,-8.213648E3,-3.9836296E3,-3.2104653E3,2.1781538E3,-3.7234625E2,5.3092515E3,5.2091206E3,8.927443E3,3.4438838E3,8.193694E3,7.7788164E3,1.3738381E4,1.9675482E4,3.294655E4,3.182286E4,6.1760277E4,-4.1659307E3,-3.8467972E2,1.2115715E3,5.5756816E3,6.8898066E3,9.583307E2,1.8785852E4,7.68564E3,7.9969907E3,1.5974318E4,1.8634816E4,3.348878E4,2.4920785E4,4.7081062E4,1.73069E4,2.678921E4,4.6928594E4,1.5088851E4,2.9589283E4,4.801888E4,7.035166E4,3.971103E4],"split_indices":[0,2,2,2,0,2,4,0,0,4,4,4,0,4,2,1,2,0,2,2,2,2,0,2,1,1,2,0,0,2,2,2,4,4,2,3,2,3,3,4,1,0,0,3,0,1,4,0,2,2,4,0,3,0,0,0,0,0,0,0,0,0,0,0,0,0,0,0,0,0,0,0,0,0,0,0,0,0,0,0,0,0,0,0,0,0,0,0,0,0,0,0,0,0,0,0,0,0,0,0,0],"split_type":[0,0,0,0,0,0,0,0,0,0,0,0,0,0,0,0,0,0,0,0,0,0,0,0,0,0,0,0,0,0,0,0,0,0,0,0,0,0,0,0,0,0,0,0,0,0,0,0,0,0,0,0,0,0,0,0,0,0,0,0,0,0,0,0,0,0,0,0,0,0,0,0,0,0,0,0,0,0,0,0,0,0,0,0,0,0,0,0,0,0,0,0,0,0,0,0,0,0,0,0,0],"sum_hessian":[8E3,7.124E3,8.76E2,5.613E3,1.511E3,6.3E2,2.46E2,1E0,5.612E3,8.16E2,6.95E2,3.01E2,3.29E2,2.21E2,2.5E1,3.434E3,2.178E3,4.72E2,3.44E2,6.25E2,7E1,1.61E2,1.4E2,2.92E2,3.7E1,6.1E1,1.6E2,1.1E1,1.4E1,6.82E2,2.752E3,9E2,1.278E3,1.83E2,2.89E2,1.49E2,1.95E2,1.97E2,4.28E2,4.4E1,2.6E1,6.4E1,9.7E1,5.2E1,8.8E1,1.75E2,1.17E2,3E0,3.4E1,5.3E1,8E0,7.2E1,8.8E1,1E0,1.3E1,2E0,6.8E2,1.012E3,1.74E3,4.16E2,4.84E2,9.84E2,2.94E2,2.8E1,1.55E2,1.85E2,1.04E2,1.06E2,4.3E1,8.9E1,1.06E2,1.37E2,6E1,1.12E2,3.16E2,3.5E1,9E0,2.2E1,4E0,4.9E1,1.5E1,7.9E1,1.8E1,2.2E1,3E1,2E0,8.6E1,9.9E1,7.6E1,9.5E1,2.2E1,2.9E1,5E0,1.5E1,3.8E1,6E0,2E0,3.4E1,3.8E1,7.5E1,1.3E1],"tree_param":{"num_deleted":"0","num_feature":"5","num_nodes":"101","size_leaf_vector":"1"}},{"base_weights":[1.4280278E2,-5.27482E3,6.673793E4,-1.0845804E4,1.9187793E4,3.2362027E4,1.4651634E5,1.7961617E5,-1.1046283E4,2.9287166E3,3.57534E4,1.0097304E4,5.3751332E4,1.27722016E5,2.53647E5,-1.6311568E4,-3.667129E3,-5.116831E3,1.3764003E4,2.8512926E4,7.8976914E4,3.0883718E3,2.0615715E4,4.7658824E4,8.8375945E4,1.0753042E5,1.7996753E5,1.7309103E5,3.0118197E5,-1.9640252E4,-1.4409824E4,-9.842368E3,2.7927036E3,-1.0696713E4,-7.5418085E2,6.215791E3,1.988484E4,2.3888344E4,3.909782E4,5.456102E4,1.10994695E5,-2.7513809E3,1.2962667E4,-1.4903062E4,2.2133957E4,4.0297105E4,7.0333945E4,5.188021E4,7.313994E4,7.660177E4,1.1570506E5,1.7329627E4,1.8788653E5,1.4419557E4,5.402624E4,2.1388668E4,9.375298E4,1.944553E4,-5.947115E3,-4.940817E3,-2.514632E3,-4.899609E3,-2.2293347E3,-4.98366E2,4.4305347E3,-5.7629116E3,-2.7041616E3,-2.2617734E3,1.2786387E3,-2.3086482E2,4.8789814E3,3.1839966E3,7.3142095E3,4.249846E3,8.541048E3,7.299524E3,1.6718418E4,7.2754326E3,1.8384527E4,4.09938E4,2.1187977E4,-1.5579589E3,1.3068754E3,6.7270044E3,2.4808647E3,-6.306123E2,-5.540817E3,1.2913785E4,5.9570063E3,4.4406245E3,1.337986E4,1.6549703E4,3.0678275E4,1.6021149E4,3.2661393E4,7.3859937E3,2.3932656E4,3.005616E4,4.606745E4,6.291673E4,4.017411E4],"categories":[],"categories_nodes":[],"categories_segments":[],"categories_sizes":[],"default_left":[0,0,0,0,0,0,0,0,0,0,0,0,0,0,0,0,0,0,0,0,0,0,0,0,0,0,0,0,0,0,0,0,0,0,0,0,0,0,0,0,0,0,0,0,0,0,0,0,0,0,0,0,0,0,0,0,0,0,0,0,0,0,0,0,0,0,0,0,0,0,0,0,0,0,0,0,0,0,0,0,0,0,0,0,0,0,0,0,0,0,0,0,0,0,0,0,0,0,0,0,0],"id":1,"left_children":[1,3,5,7,9,11,13,-1,15,17,19,21,23,25,27,29,31,33,35,37,39,41,43,45,47,49,51,53,55,57,59,61,63,65,67,69,71,73,75,77,79,81,83,85,87,89,91,-1,93,95,97,-1,99,-1,-1,-1,-1,-1,-1,-1,-1,-1,-1,-1,-1,-1,-1,-1,-1,-1,-1,-1,-1,-1,-1,-1,-1,-1,-1,-1,-1,-1,-1,-1,-1,-1,-1,-1,-1,-1,-1,-1,-1,-1,-1,-1,-1,-1,-1,-1,-1],"loss_changes":[2.887011E12,1.0086863E12,1.6462163E12,7.4326684E11,3.697011E11,2.0042501E11,3.3203736E11,0E0,2.3410934E11,6.057044E10,2.105599E11,1.5270681E10,4.1142518E10,1.4521546E11,4.742801E10,2.1980709E10,1.00193804E11,9.70482E9,1.3552005E10,2.7653276E10,6.97731E10,7.3012593E9,4.8057303E9,2.804741E10,2.728978E10,2.021235E10,2.97907E10,1.8408735E9,1.678141E10,2.1056979E10,2.7695153E10,1.9970957E10,6.5524888E10,2.3338967E9,7.6902277E9,9.417315E9,6.535643E9,1.78157E10,4.1863184E10,1.0124886E10,3.2804438E10,1.4110646E9,1.9013734E9,1.4378707E8,2.9550305E9,1.4915879E10,1.5666889E10,0E0,1.3931414E10,2.4903025E9,3.6894015E10,0E0,1.7878614E10,0E0,0E0,0E0,0E0,0E0,0E0,0E0,0E0,0E0,0E0,0E0,0E0,0E0,0E0,0E0,0E0,0E0,0E0,0E0,0E0,0E0,0E0,0E0,0E0,0E0,0E0,0E0,0E0,0E0,0E0,0E0,0E0,0E0,0E0,0E0,0E0,0E0,0E0,0E0,0E0,0E0,0E0,0E0,0E0,0E0,0E0,0E0,0E0],"parents":[2147483647,0,0,1,1,2,2,3,3,4,4,5,5,6,6,8,8,9,9,10,10,11,11,12,12,13,13,14,14,15,15,16,16,17,17,18,18,19,19,20,20,21,21,22,22,23,23,24,24,25,25,26,26,27,27,28,28,29,29,30,30,31,31,32,32,33,33,34,34,35,35,36,36,37,37,38,38,39,39,40,40,41,41,42,42,43,43,44,44,45,45,46,46,48,48,49,49,50,50,52,52],"right_children":[2,4,6,8,10,12,14,-1,16,18,20,22,24,26,28,30,32,34,36,38,40,42,44,46,48,50,52,54,56,58,60,62,64,66,68,70,72,74,76,78,80,82,84,86,88,90,92,-1,94,96,98,-1,100,-1,-1,-1,-1,-1,-1,-1,-1,-1,-1,-1,-1,-1,-1,-1,-1,-1,-1,-1,-1,-1,-1,-1,-1,-1,-1,-1,-1,-1,-1,-1,-1,-1,-1,-1,-1,-1,-1,-1,-1,-1,-1,-1,-1,-1,-1,-1,-1],"split_conditions":[3.4E2,2.017E3,2.019E3,1.939E3,1.93E2,2.013E3,3.6E0,1.7961617E5,1.63E2,2E0,2.9E0,5.6E0,5.7E0,2.023E3,2.022E3,2.006E3,2.012E3,1.2E2,5.5E1,2.49E2,2.021E3,4.15E2,2.001E3,2.017E3,2.07E2,4.9E1,1E-1,2.65E2,3.6E2,1.956E3,1.8E0,2.004E3,2.6E0,8E-1,2.02E3,1.7E2,2.55E2,5.5E1,2.021E3,4.9E1,3.4E0,2.01E3,6.22E2,3.6E2,7E0,3.58E2,4.35E2,5.188021E4,2.015E3,1.04E2,6.77E2,1.7329627E4,7.18E2,1.4419557E4,5.402624E4,2.1388668E4,9.375298E4,1.944553E4,-5.947115E3,-4.940817E3,-2.514632E3,-4.899609E3,-2.2293347E3,-4.98366E2,4.4305347E3,-5.7629116E3,-2.7041616E3,-2.2617734E3,1.2786387E3,-2.3086482E2,4.8789814E3,3.1839966E3,7.3142095E3,4.249846E3,8.541048E3,7.299524E3,1.6718418E4,7.2754326E3,1.8384527E4,4.09938E4,2.1187977E4,-1.5579589E3,1.3068754E3,6.7270044E3,2.4808647E3,-6.306123E2,-5.540817E3,1.2913785E4,5.9570063E3,4.4406245E3,1.337986E4,1.6549703E4,3.0678275E4,1.6021149E4,3.2661393E4,7.3859937E3,2.3932656E4,3.005616E4,4.606745E4,6.291673E4,4.017411E4],"split_indices":[0,2,2,2,0,2,4,0,0,4,4,4,4,2,2,2,2,0,3,0,2,0,2,2,1,3,4,1,0,2,4,2,4,4,2,0,1,3,2,3,4,2,1,0,3,1,0,0,2,1,1,0,1,0,0,0,0,0,0,0,0,0,0,0,0,0,0,0,0,0,0,0,0,0,0,0,0,0,0,0,0,0,0,0,0,0,0,0,0,0,0,0,0,0,0,0,0,0,0,0,0],"split_type":[0,0,0,0,0,0,0,0,0,0,0,0,0,0,0,0,0,0,0,0,0,0,0,0,0,0,0,0,0,0,0,0,0,0,0,0,0,0,0,0,0,0,0,0,0,0,0,0,0,0,0,0,0,0,0,0,0,0,0,0,0,0,0,0,0,0,0,0,0,0,0,0,0,0,0,0,0,0,0,0,0,0,0,0,0,0,0,0,0,0,0,0,0,0,0,0,0,0,0,0,0],"sum_hessian":[8E3,7.399E3,6.01E2,6.027E3,1.372E3,4.21E2,1.8E2,1E0,6.026E3,6.93E2,6.79E2,2.07E2,2.14E2,1.55E2,2.5E1,3.516E3,2.51E3,3.98E2,2.95E2,5.83E2,9.6E1,1.25E2,8.2E1,1.84E2,3E1,1.14E2,4.1E1,1.1E1,1.4E1,1.275E3,2.241E3,1.283E3,1.227E3,1.74E2,2.24E2,1.33E2,1.62E2,4.08E2,1.75E2,5.6E1,4E1,7.9E1,4.6E1,3E0,7.9E1,1.41E2,4.3E1,3E0,2.7E1,2.6E1,8.8E1,3E0,3.8E1,1E0,1E1,1E0,1.3E1,2E0,1.273E3,1.669E3,5.72E2,3.46E2,9.37E2,8.95E2,3.32E2,2.7E1,1.47E2,9.5E1,1.29E2,7.9E1,5.4E1,5.4E1,1.08E2,1.32E2,2.76E2,9.4E1,8.1E1,1.1E1,4.5E1,2.3E1,1.7E1,5.9E1,2E1,1.4E1,3.2E1,1E0,2E0,6E0,7.3E1,2.1E1,1.2E2,3.1E1,1.2E1,1.9E1,8E0,2E0,2.4E1,6.5E1,2.3E1,2.5E1,1.3E1],"tree_param":{"num_deleted":"0","num_feature":"5","num_nodes":"101","size_leaf_vector":"1"}},{"base_weights":[2.1388855E2,-3.6501023E3,4.7711098E4,1.5267375E5,-3.7881582E3,2.0705557E4,9.9908625E4,-8.830911E3,1.0094118E4,7.172228E3,3.5335016E4,8.6561695E4,1.6936044E5,-1.2637005E4,-5.2302993E3,6.793127E3,4.3951766E4,2.232946E3,1.4584003E4,3.2152646E4,8.972067E4,7.2558414E4,1.2884442E5,1.1899897E5,2.185035E5,2.1347455E4,-1.2695766E4,-6.4518936E3,8.935143E3,-4.1400894E3,1.2565146E4,1.4035022E4,5.5148367E4,-3.168546E3,8.420548E3,-1.1975E4,1.5729652E4,2.5059367E4,4.3953656E4,1.3472219E3,3.3140047E4,4.741577E4,8.28626E4,1.3430462E4,1.3416392E5,1.6176033E5,2.524148E4,3.781613E4,7.56369E4,-4.724333E3,-3.5043787E3,-3.1357317E3,-1.3612742E3,-2.0447917E3,6.103031E3,-1.4546465E3,4.6228086E3,1.648721E3,6.20916E3,-1.8727365E3,4.792856E3,1.2430774E4,2.1875473E4,-2.540105E3,-4.1262595E2,-7.22393E2,3.0499065E3,-5.360203E2,-4.4326533E3,5.6751794E2,5.4431465E3,4.75287E3,1.1201445E4,7.0107734E3,1.7179172E4,8.357873E3,1.6957256E4,2.6873254E4,1.2591986E4,3.001828E4,4.5392727E4,1.2256623E4,5.2530574E4],"categories":[],"categories_nodes":[],"categories_segments":[],"categories_sizes":[],"default_left":[0,0,0,0,0,0,0,0,0,0,0,0,0,0,0,0,0,0,0,0,0,0,0,0,0,0,0,0,0,0,0,0,0,0,0,0,0,0,0,0,0,0,0,0,0,0,0,0,0,0,0,0,0,0,0,0,0,0,0,0,0,0,0,0,0,0,0,0,0,0,0,0,0,0,0,0,0,0,0,0,0,0,0],"id":2,"left_children":[1,3,5,-1,7,9,11,13,15,17,19,21,23,25,27,29,31,33,35,37,39,41,43,45,47,-1,49,51,53,55,57,59,61,63,65,67,69,71,73,-1,-1,75,77,-1,79,81,-1,-1,-1,-1,-1,-1,-1,-1,-1,-1,-1,-1,-1,-1,-1,-1,-1,-1,-1,-1,-1,-1,-1,-1,-1,-1,-1,-1,-1,-1,-1,-1,-1,-1,-1,-1,-1],"loss_changes":[1.4685878E12,5.255685E11,8.465242E11,0E0,5.1805526E11,7.8544716E10,1.7536844E11,7.4320675E10,2.200996E11,7.582076E9,3.0172627E10,9.367611E10,5.319557E10,1.3892682E10,4.8354304E10,1.1351796E11,5.7845023E10,4.237888E9,2.7138294E9,1.4133395E10,1.7185841E10,3.052798E10,1.2777947E10,1.3222216E10,1.4840693E10,0E0,7.9809085E9,1.963438E10,4.003058E10,8.692725E9,6.7550577E10,2.0284652E9,2.7924464E10,6.344106E8,1.1398467E9,8.772947E7,2.6382418E9,1.2535833E10,1.7018692E10,0E0,0E0,5.728428E9,2.1774991E10,0E0,7.66319E9,4.1375662E9,0E0,0E0,0E0,0E0,0E0,0E0,0E0,0E0,0E0,0E0,0E0,0E0,0E0,0E0,0E0,0E0,0E0,0E0,0E0,0E0,0E0,0E0,0E0,0E0,0E0,0E0,0E0,0E0,0E0,0E0,0E0,0E0,0E0,0E0,0E0,0E0,0E0],"parents":[2147483647,0,0,1,1,2,2,4,4,5,5,6,6,7,7,8,8,9,9,10,10,11,11,12,12,13,13,14,14,15,15,16,16,17,17,18,18,19,19,20,20,21,21,22,22,23,23,24,24,26,26,27,27,28,28,29,29,30,30,31,31,32,32,33,33,34,34,35,35,36,36,37,37,38,38,41,41,42,42,44,44,45,45],"right_children":[2,4,6,-1,8,10,12,14,16,18,20,22,24,26,28,30,32,34,36,38,40,42,44,46,48,-1,50,52,54,56,58,60,62,64,66,68,70,72,74,-1,-1,76,78,-1,80,82,-1,-1,-1,-1,-1,-1,-1,-1,-1,-1,-1,-1,-1,-1,-1,-1,-1,-1,-1,-1,-1,-1,-1,-1,-1,-1,-1,-1,-1,-1,-1,-1,-1,-1,-1,-1,-1],"split_conditions":[3.4E2,1.939E3,2.018E3,1.5267375E5,2.015E3,2.013E3,3.6E0,1.4E2,2.8E0,5.6E0,6E0,2.023E3,2.022E3,1.955E3,4E0,1.61E2,4.9E1,2.01E3,2.001E3,5E0,5.09E2,2.02E3,1E-1,4.01E2,5.09E2,2.1347455E4,1.43E2,2.008E3,2.007E3,2.1E0,2.02E3,3E0,2.019E3,3.6E2,3.83E2,3.6E2,1.37E2,6.77E2,2.014E3,1.3472219E3,3.3140047E4,4.25E2,8.3E1,1.3430462E4,3E0,5.71E2,2.524148E4,3.781613E4,7.56369E4,-4.724333E3,-3.5043787E3,-3.1357317E3,-1.3612742E3,-2.0447917E3,6.103031E3,-1.4546465E3,4.6228086E3,1.648721E3,6.20916E3,-1.8727365E3,4.792856E3,1.2430774E4,2.1875473E4,-2.540105E3,-4.1262595E2,-7.22393E2,3.0499065E3,-5.360203E2,-4.4326533E3,5.6751794E2,5.4431465E3,4.75287E3,1.1201445E4,7.0107734E3,1.7179172E4,8.357873E3,1.6957256E4,2.6873254E4,1.2591986E4,3.001828E4,4.5392727E4,1.2256623E4,5.2530574E4],"split_indices":[0,2,2,0,2,2,4,0,4,4,4,2,2,2,4,0,3,2,2,4,0,2,4,1,0,0,1,2,2,4,2,4,2,0,0,0,1,1,2,0,0,1,3,0,3,0,0,0,0,0,0,0,0,0,0,0,0,0,0,0,0,0,0,0,0,0,0,0,0,0,0,0,0,0,0,0,0,0,0,0,0,0,0],"split_type":[0,0,0,0,0,0,0,0,0,0,0,0,0,0,0,0,0,0,0,0,0,0,0,0,0,0,0,0,0,0,0,0,0,0,0,0,0,0,0,0,0,0,0,0,0,0,0,0,0,0,0,0,0,0,0,0,0,0,0,0,0,0,0,0,0,0,0,0,0,0,0,0,0,0,0,0,0,0,0,0,0,0,0],"sum_hessian":[8E3,7.399E3,6.01E2,1E0,7.398E3,3.97E2,2.04E2,5.427E3,1.971E3,2.07E2,1.9E2,1.73E2,3.1E1,2.637E3,2.79E3,1.797E3,1.74E2,1.25E2,8.2E1,1.81E2,9E0,1.32E2,4.1E1,1.7E1,1.4E1,1E0,2.636E3,2.569E3,2.21E2,6.21E2,1.176E3,4.8E1,1.26E2,6.7E1,5.8E1,3E0,7.9E1,1.15E2,6.6E1,2E0,7E0,4E1,9.2E1,3E0,3.8E1,6E0,1.1E1,5E0,9E0,6.54E2,1.982E3,8.3E2,1.739E3,9.3E1,1.28E2,6E2,2.1E1,6.3E2,5.46E2,4E0,4.4E1,7.3E1,5.3E1,1.6E1,5.1E1,8E0,5E1,1E0,2E0,1.2E1,6.7E1,6.7E1,4.8E1,2.7E1,3.9E1,1.4E1,2.6E1,7.8E1,1.4E1,1.5E1,2.3E1,1E0,5E0],"tree_param":{"num_deleted":"0","num_feature":"5","num_nodes":"83","size_leaf_vector":"1"}},{"base_weights":[2.304316E2,-3.2129429E3,2.820513E4,1.2977268E5,-3.3348354E3,1.3209447E4,6.639976E4,-6.063389E3,6.7965835E3,8.647545E3,3.1245281E4,5.7857734E4,1.3678162E5,-9.10839E3,-3.400547E3,-2.1425044E3,1.2599091E4,4.830873E3,1.8864367E4,2.3284467E4,5.415131E4,4.672436E4,8.403028E4,8.6895086E4,1.5808067E5,-1.197768E4,-8.245646E3,-5.385725E3,2.9401199E3,-5.933116E3,2.2442761E3,1.042766E4,3.7938414E4,-2.4712812E3,8.581859E3,9.347586E3,3.0921775E4,9.462179E3,3.0047766E4,7.152024E4,3.4618707E4,2.9294232E4,6.0976395E4,1.14212414E5,5.130177E4,9.832361E3,2.8898523E4,1.641443E5,9.159398E3,-3.8412603E3,-3.330064E3,-3.300047E3,-2.3261685E3,-1.7969087E3,8.6511005E2,-2.0186513E2,3.1980962E3,-1.9732924E3,3.3473506E3,-2.4899714E3,1.1410675E3,1.5437866E3,5.42481E3,-8.097921E3,1.2053765E4,9.0448126E2,-1.6355621E3,2.4202537E3,2.0035238E4,2.298148E3,7.609552E3,1.0699064E4,-1.3073024E3,-1.9975858E3,4.466154E3,5.8199224E3,1.2227089E4,4.608297E3,2.227204E4,6.5866987E3,1.6252504E4,6.890611E3,1.1766113E4,2.0719156E4,7.976066E3,2.3022396E4,5.201752E4,5.7413584E3,1.93362E4,1.0418131E4,5.1137098E4],"categories":[],"categories_nodes":[],"categories_segments":[],"categories_sizes":[],"default_left":[0,0,0,0,0,0,0,0,0,0,0,0,0,0,0,0,0,0,0,0,0,0,0,0,0,0,0,0,0,0,0,0,0,0,0,0,0,0,0,0,0,0,0,0,0,0,0,0,0,0,0,0,0,0,0,0,0,0,0,0,0,0,0,0,0,0,0,0,0,0,0,0,0,0,0,0,0,0,0,0,0,0,0,0,0,0,0,0,0,0,0],"id":3,"left_children":[1,3,5,-1,7,9,11,13,15,17,19,21,23,25,27,29,31,33,35,37,39,41,43,45,47,49,51,53,55,57,59,61,63,65,67,69,71,73,75,77,79,81,83,85,87,-1,-1,89,-1,-1,-1,-1,-1,-1,-1,-1,-1,-1,-1,-1,-1,-1,-1,-1,-1,-1,-1,-1,-1,-1,-1,-1,-1,-1,-1,-1,-1,-1,-1,-1,-1,-1,-1,-1,-1,-1,-1,-1,-1,-1,-1],"loss_changes":[7.7080586E11,3.7991884E11,5.0142865E11,0E0,1.9697789E11,5.1647037E10,1.4058344E11,4.548123E10,7.8453105E10,1.960097E10,2.1897642E10,6.076203E10,1.388947E10,6.3819776E9,3.772754E10,9.92395E9,5.00601E10,1.012822E10,1.5431393E10,8.690172E9,8.3803914E9,3.7463294E10,5.8348765E10,1.948246E9,8.136491E9,2.9519872E8,2.6454508E9,1.14147E10,1.995075E10,3.5983688E9,4.585823E9,3.4112135E10,1.156046E10,2.0768118E9,6.765648E9,1.9134966E9,1.0192634E10,2.9851538E9,6.50736E9,1.3035438E9,3.0204723E9,3.682685E9,2.2082454E10,5.9871625E10,1.2726378E10,0E0,0E0,7.152042E9,0E0,0E0,0E0,0E0,0E0,0E0,0E0,0E0,0E0,0E0,0E0,0E0,0E0,0E0,0E0,0E0,0E0,0E0,0E0,0E0,0E0,0E0,0E0,0E0,0E0,0E0,0E0,0E0,0E0,0E0,0E0,0E0,0E0,0E0,0E0,0E0,0E0,0E0,0E0,0E0,0E0,0E0,0E0],"parents":[2147483647,0,0,1,1,2,2,4,4,5,5,6,6,7,7,8,8,9,9,10,10,11,11,12,12,13,13,14,14,15,15,16,16,17,17,18,18,19,19,20,20,21,21,22,22,23,23,24,24,25,25,26,26,27,27,28,28,29,29,30,30,31,31,32,32,33,33,34,34,35,35,36,36,37,37,38,38,39,39,40,40,41,41,42,42,43,43,44,44,47,47],"right_children":[2,4,6,-1,8,10,12,14,16,18,20,22,24,26,28,30,32,34,36,38,40,42,44,46,48,50,52,54,56,58,60,62,64,66,68,70,72,74,76,78,80,82,84,86,88,-1,-1,90,-1,-1,-1,-1,-1,-1,-1,-1,-1,-1,-1,-1,-1,-1,-1,-1,-1,-1,-1,-1,-1,-1,-1,-1,-1,-1,-1,-1,-1,-1,-1,-1,-1,-1,-1,-1,-1,-1,-1,-1,-1,-1,-1],"split_conditions":[2.92E2,1.939E3,2.019E3,1.2977268E5,2.016E3,2.016E3,3.7E0,2E0,2E0,4.5E2,3.7E0,6.82E2,5.09E2,2.005E3,2.013E3,2.022E3,2.9E0,4.9E1,2.013E3,4.8E1,5.9E1,2.022E3,7.84E2,2.021E3,6.88E2,1.998E3,3.3E1,3.9E0,5.5E1,2.05E2,9.5E1,2.021E3,1.83E2,3.2E0,8.02E2,5.71E2,6.9E1,2.6E0,6.82E2,1.37E2,5.09E2,3.67E2,8.3E1,2.022E3,8.61E2,9.832361E3,2.8898523E4,2.65E2,9.159398E3,-3.8412603E3,-3.330064E3,-3.300047E3,-2.3261685E3,-1.7969087E3,8.6511005E2,-2.0186513E2,3.1980962E3,-1.9732924E3,3.3473506E3,-2.4899714E3,1.1410675E3,1.5437866E3,5.42481E3,-8.097921E3,1.2053765E4,9.0448126E2,-1.6355621E3,2.4202537E3,2.0035238E4,2.298148E3,7.609552E3,1.0699064E4,-1.3073024E3,-1.9975858E3,4.466154E3,5.8199224E3,1.2227089E4,4.608297E3,2.227204E4,6.5866987E3,1.6252504E4,6.890611E3,1.1766113E4,2.0719156E4,7.976066E3,2.3022396E4,5.201752E4,5.7413584E3,1.93362E4,1.0418131E4,5.1137098E4],"split_indices":[0,2,2,0,2,2,4,4,4,0,4,1,0,2,2,2,4,3,2,3,3,2,1,2,1,2,3,4,3,0,0,2,1,4,1,0,3,4,1,1,0,0,3,2,1,0,0,1,0,0,0,0,0,0,0,0,0,0,0,0,0,0,0,0,0,0,0,0,0,0,0,0,0,0,0,0,0,0,0,0,0,0,0,0,0,0,0,0,0,0,0],"split_type":[0,0,0,0,0,0,0,0,0,0,0,0,0,0,0,0,0,0,0,0,0,0,0,0,0,0,0,0,0,0,0,0,0,0,0,0,0,0,0,0,0,0,0,0,0,0,0,0,0,0,0,0,0,0,0,0,0,0,0,0,0,0,0,0,0,0,0,0,0,0,0,0,0,0,0,0,0,0,0,0,0,0,0,0,0,0,0,0,0,0,0],"sum_hessian":[8E3,7.124E3,8.76E2,1E0,7.123E3,6.3E2,2.46E2,5.612E3,1.511E3,5.04E2,1.26E2,2.21E2,2.5E1,2.617E3,2.995E3,5.95E2,9.16E2,3.68E2,1.36E2,9.5E1,3.1E1,1.57E2,6.4E1,9E0,1.6E1,6.02E2,2.015E3,2.281E3,7.14E2,3.19E2,2.76E2,8.45E2,7.1E1,1.25E2,2.43E2,7.7E1,5.9E1,3.2E1,6.3E1,1.5E1,1.6E1,7.2E1,8.5E1,3.2E1,3.2E1,2E0,7E0,1.5E1,1E0,3.03E2,2.99E2,3.02E2,1.713E3,2.126E3,1.55E2,4.87E2,2.27E2,3.08E2,1.1E1,3.5E1,2.41E2,5.01E2,3.44E2,2E0,6.9E1,4.4E1,8.1E1,2.42E2,1E0,7.1E1,6E0,5.2E1,7E0,8E0,2.4E1,3.3E1,3E1,1E0,1.4E1,1.1E1,5E0,4.6E1,2.6E1,6.8E1,1.7E1,2.1E1,1.1E1,1E1,2.2E1,1E0,1.4E1],"tree_param":{"num_deleted":"0","num_feature":"5","num_nodes":"91","size_leaf_vector":"1"}},{"base_weights":[2.2356467E2,-2.4554429E3,1.8748508E4,1.1030678E5,-2.5609983E3,7.8450215E3,4.456362E4,-4.811656E3,3.8302473E3,2.9265051E3,1.3371452E4,3.8983418E4,9.172785E4,-6.250723E3,-2.9339167E3,-5.675331E2,1.0240733E4,-1.3377974E3,6.8512593E3,1.0886924E4,3.826792E4,2.7370553E4,5.3489066E4,8.8293634E2,1.0113539E5,1.8414873E4,-6.2948315E3,-5.219269E3,-1.01301587E3,1.0191222E4,-2.4339465E3,2.274497E4,4.130974E3,-2.1479646E3,2.2785104E4,6.306965E3,1.7029951E4,2.1529934E3,1.4236386E4,2.8607418E4,2.8392795E4,2.1423688E4,4.294807E4,2.2257604E4,6.0343027E4,1.1866106E5,5.095218E4,-2.2787205E3,-1.2691692E3,-2.2814114E3,-1.3650941E3,-7.2857697E2,6.560987E2,2.2263171E3,1.3121452E4,-1.3147812E3,1.0973324E3,5.013087E3,1.1408897E4,4.0485486E2,6.5221997E3,-1.2655609E3,4.7214084E2,2.0103188E3,7.3985103E3,-1.5596212E3,2.6004705E3,1.0005619E2,9.468524E3,2.9193862E3,6.7112925E3,9.355444E3,1.362743E3,4.913888E3,9.244587E3,1.6334253E4,6.47317E3,8.013049E3,-1.6708782E3,1.4934628E4,2.5016996E4,3.8186402E4,8.203702E3,1.9201407E3,1.6716326E4],"categories":[],"categories_nodes":[],"categories_segments":[],"categories_sizes":[],"default_left":[0,0,0,0,0,0,0,0,0,0,0,0,0,0,0,0,0,0,0,0,0,0,0,0,0,0,0,0,0,0,0,0,0,0,0,0,0,0,0,0,0,0,0,0,0,0,0,0,0,0,0,0,0,0,0,0,0,0,0,0,0,0,0,0,0,0,0,0,0,0,0,0,0,0,0,0,0,0,0,0,0,0,0,0,0],"id":4,"left_children":[1,3,5,-1,7,9,11,13,15,17,19,21,23,25,27,29,31,33,35,37,39,41,43,-1,45,-1,47,49,51,53,55,57,59,61,63,65,-1,67,69,-1,71,73,75,77,79,81,83,-1,-1,-1,-1,-1,-1,-1,-1,-1,-1,-1,-1,-1,-1,-1,-1,-1,-1,-1,-1,-1,-1,-1,-1,-1,-1,-1,-1,-1,-1,-1,-1,-1,-1,-1,-1,-1,-1],"loss_changes":[3.9712332E11,2.7408604E11,2.8422137E11,0E0,1.0056611E11,1.9314336E10,7.53799E10,1.3952E10,5.134328E10,6.3355023E9,2.030513E10,4.4018074E10,2.5594954E10,9.115238E9,9.850118E9,2.1731594E10,5.651687E10,3.6058742E9,4.9941893E9,8.921063E9,1.420569E10,1.3160784E10,2.4129962E10,0E0,1.8579816E10,0E0,7.8226964E9,1.6010404E9,5.536262E9,1.4544312E10,1.0960796E10,2.17784E10,2.4411988E10,1.370634E9,1.5839744E7,5.3700055E9,0E0,4.5911987E9,7.8813184E9,0E0,1.6562913E9,4.800901E9,8.901034E9,2.9985167E9,1.945826E10,1.2274696E10,1.5555256E9,0E0,0E0,0E0,0E0,0E0,0E0,0E0,0E0,0E0,0E0,0E0,0E0,0E0,0E0,0E0,0E0,0E0,0E0,0E0,0E0,0E0,0E0,0E0,0E0,0E0,0E0,0E0,0E0,0E0,0E0,0E0,0E0,0E0,0E0,0E0,0E0,0E0,0E0],"parents":[2147483647,0,0,1,1,2,2,4,4,5,5,6,6,7,7,8,8,9,9,10,10,11,11,12,12,13,13,14,14,15,15,16,16,17,17,18,18,19,19,20,20,21,21,22,22,24,24,26,26,27,27,28,28,29,29,30,30,31,31,32,32,33,33,34,34,35,35,37,37,38,38,40,40,41,41,42,42,43,43,44,44,45,45,46,46],"right_children":[2,4,6,-1,8,10,12,14,16,18,20,22,24,26,28,30,32,34,36,38,40,42,44,-1,46,-1,48,50,52,54,56,58,60,62,64,66,-1,68,70,-1,72,74,76,78,80,82,84,-1,-1,-1,-1,-1,-1,-1,-1,-1,-1,-1,-1,-1,-1,-1,-1,-1,-1,-1,-1,-1,-1,-1,-1,-1,-1,-1,-1,-1,-1,-1,-1,-1,-1,-1,-1,-1,-1],"split_conditions":[2.82E2,1.939E3,2.018E3,1.1030678E5,2.015E3,2.013E3,5.1E2,2.009E3,5.6E1,5.8E1,5.7E0,2.022E3,1.3E1,1.955E3,1.9E0,4E0,6.9E1,5.71E2,8.02E2,5.5E1,2.07E2,6.82E2,2.5E0,8.8293634E2,6.88E2,1.8414873E4,2.2E0,9E1,5.5E1,2.021E3,7.42E2,2.021E3,2.38E2,3.96E2,2.009E3,2.008E3,1.7029951E4,4.6E2,6.77E2,2.8607418E4,5.9E1,3.67E2,7.18E2,4.15E2,6.7E2,7.1E1,7.18E2,-2.2787205E3,-1.2691692E3,-2.2814114E3,-1.3650941E3,-7.2857697E2,6.560987E2,2.2263171E3,1.3121452E4,-1.3147812E3,1.0973324E3,5.013087E3,1.1408897E4,4.0485486E2,6.5221997E3,-1.2655609E3,4.7214084E2,2.0103188E3,7.3985103E3,-1.5596212E3,2.6004705E3,1.0005619E2,9.468524E3,2.9193862E3,6.7112925E3,9.355444E3,1.362743E3,4.913888E3,9.244587E3,1.6334253E4,6.47317E3,8.013049E3,-1.6708782E3,1.4934628E4,2.5016996E4,3.8186402E4,8.203702E3,1.9201407E3,1.6716326E4],"split_indices":[0,2,2,0,2,2,0,2,3,3,4,2,1,2,4,3,3,0,1,3,1,1,4,0,1,0,4,0,3,2,1,2,0,0,2,2,0,0,1,0,3,0,1,0,1,3,1,0,0,0,0,0,0,0,0,0,0,0,0,0,0,0,0,0,0,0,0,0,0,0,0,0,0,0,0,0,0,0,0,0,0,0,0,0,0],"split_type":[0,0,0,0,0,0,0,0,0,0,0,0,0,0,0,0,0,0,0,0,0,0,0,0,0,0,0,0,0,0,0,0,0,0,0,0,0,0,0,0,0,0,0,0,0,0,0,0,0,0,0,0,0,0,0,0,0,0,0,0,0,0,0,0,0,0,0,0,0,0,0,0,0,0,0,0,0,0,0,0,0,0,0,0,0],"sum_hessian":[8E3,6.99E3,1.01E3,1E0,6.989E3,7.11E2,2.99E2,5.169E3,1.82E3,3.77E2,3.34E2,2.69E2,3E1,2.925E3,2.244E3,1.08E3,7.4E2,1.81E2,1.96E2,3.05E2,2.9E1,1.51E2,1.18E2,3E0,2.7E1,1E0,2.924E3,1.024E3,1.22E3,1.59E2,9.21E2,2.42E2,4.98E2,1.76E2,5E0,1.95E2,1E0,8.5E1,2.2E2,3E0,2.6E1,1.11E2,4E1,2.2E1,9.6E1,1.9E1,8E0,1.792E3,1.132E3,2.22E2,8.02E2,8.46E2,3.74E2,1.48E2,1.1E1,6.98E2,2.23E2,1.75E2,6.7E1,4.31E2,6.7E1,1.13E2,6.3E1,1E0,4E0,3.3E1,1.62E2,8.1E1,4E0,1.43E2,7.7E1,2.3E1,3E0,7.4E1,3.7E1,2.5E1,1.5E1,1.9E1,3E0,6.8E1,2.8E1,1.7E1,2E0,1E0,7E0],"tree_param":{"num_deleted":"0","num_feature":"5","num_nodes":"85","size_leaf_vector":"1"}},{"base_weights":[2.0577855E2,-1.6959327E3,1.3355786E4,9.3760766E4,-1.785599E3,7.05649E3,3.6372305E4,-2.988232E3,4.6636265E3,6.017469E3,3.4293473E4,2.7875389E4,5.6249688E4,-4.085063E3,-8.83769E2,2.2642773E3,1.666111E4,3.0818362E3,1.339628E4,3.923685E4,-2.1628107E4,2.6086895E4,2.6526658E4,7.944421E4,2.359087E4,1.5652642E4,-4.1130684E3,-1.7576735E3,4.4863003E3,2.826029E4,1.8883519E3,1.3328667E4,3.7189004E4,1.6023481E3,1.1506202E4,1.0900608E4,2.7561729E4,5.046501E4,1.1173311E4,-8.620815E3,-1.1118329E3,1.4982182E4,3.0961312E4,4.938402E4,1.02526164E5,-1.6123839E4,2.7265994E4,-1.3960829E3,-3.9721194E2,-2.349405E2,-1.3109773E3,4.74853E2,5.6004507E3,5.4350493E3,1.6809863E4,-1.568128E1,2.050573E3,2.0716755E3,5.6517856E3,5.370622E3,1.8032564E4,-1.791556E2,1.5507523E3,4.4558584E3,-6.4906195E2,2.924972E3,1.0628647E4,1.3712177E4,7.232548E3,8.452294E3,2.3277883E4,-4.458843E3,4.885703E3,5.627931E3,-1.8752207E3,5.407001E3,1.1016267E4,8.283835E3,1.9211922E4,3.1911357E4,4.420617E3,-6.6759893E3,-5.797383E2,2.4233357E3,8.825279E3],"categories":[],"categories_nodes":[],"categories_segments":[],"categories_sizes":[],"default_left":[0,0,0,0,0,0,0,0,0,0,0,0,0,0,0,0,0,0,0,0,0,0,0,0,0,0,0,0,0,0,0,0,0,0,0,0,0,0,0,0,0,0,0,0,0,0,0,0,0,0,0,0,0,0,0,0,0,0,0,0,0,0,0,0,0,0,0,0,0,0,0,0,0,0,0,0,0,0,0,0,0,0,0,0,0],"id":5,"left_children":[1,3,5,-1,7,9,11,13,15,17,19,21,23,25,27,29,31,33,35,37,39,41,-1,43,45,-1,47,49,51,53,55,57,59,61,63,65,67,69,71,-1,-1,73,75,77,79,81,83,-1,-1,-1,-1,-1,-1,-1,-1,-1,-1,-1,-1,-1,-1,-1,-1,-1,-1,-1,-1,-1,-1,-1,-1,-1,-1,-1,-1,-1,-1,-1,-1,-1,-1,-1,-1,-1,-1],"loss_changes":[2.001078E11,1.9753658E11,1.4632606E11,0E0,5.422873E10,2.2291976E10,3.5082535E10,1.3596545E10,3.1598252E10,1.6573071E10,8.865432E9,1.436962E10,4.660622E10,6.316835E9,9.4876E9,8.908071E9,1.2022993E10,6.836625E9,7.4063626E9,7.943889E9,2.756667E8,7.709606E9,0E0,2.060922E10,4.526414E9,0E0,5.831217E9,4.4210714E9,1.1623385E10,2.6470932E9,8.688401E9,5.497735E9,9.97512E9,3.682558E9,3.783466E9,4.9325855E9,9.0321306E8,9.303183E9,1.4400064E9,0E0,0E0,3.9673057E9,7.087964E9,3.9750042E9,5.183701E9,2.179527E8,8.357929E8,0E0,0E0,0E0,0E0,0E0,0E0,0E0,0E0,0E0,0E0,0E0,0E0,0E0,0E0,0E0,0E0,0E0,0E0,0E0,0E0,0E0,0E0,0E0,0E0,0E0,0E0,0E0,0E0,0E0,0E0,0E0,0E0,0E0,0E0,0E0,0E0,0E0,0E0],"parents":[2147483647,0,0,1,1,2,2,4,4,5,5,6,6,7,7,8,8,9,9,10,10,11,11,12,12,13,13,14,14,15,15,16,16,17,17,18,18,19,19,20,20,21,21,23,23,24,24,26,26,27,27,28,28,29,29,30,30,31,31,32,32,33,33,34,34,35,35,36,36,37,37,38,38,41,41,42,42,43,43,44,44,45,45,46,46],"right_children":[2,4,6,-1,8,10,12,14,16,18,20,22,24,26,28,30,32,34,36,38,40,42,-1,44,46,-1,48,50,52,54,56,58,60,62,64,66,68,70,72,-1,-1,74,76,78,80,82,84,-1,-1,-1,-1,-1,-1,-1,-1,-1,-1,-1,-1,-1,-1,-1,-1,-1,-1,-1,-1,-1,-1,-1,-1,-1,-1,-1,-1,-1,-1,-1,-1,-1,-1,-1,-1,-1,-1],"split_conditions":[2.82E2,1.939E3,2.02E3,9.3760766E4,2.018E3,5.71E2,6.82E2,6.36E2,2.38E2,2.015E3,6.9E1,5.71E2,7.84E2,1.955E3,2.6E0,3E0,2.6E0,9.7E1,4.35E2,4.01E2,3.09E2,2.5E0,2.6526658E4,2.022E3,8.51E2,1.5652642E4,2.02E2,6.9E1,2.014E3,8.56E2,2.1E0,2.021E3,2.022E3,5E0,5.22E2,5.7E0,3E0,7E0,4.1E2,-8.620815E3,-1.1118329E3,4.15E2,2.022E3,6.88E2,7.18E2,3.2E2,2.021E3,-1.3960829E3,-3.9721194E2,-2.349405E2,-1.3109773E3,4.74853E2,5.6004507E3,5.4350493E3,1.6809863E4,-1.568128E1,2.050573E3,2.0716755E3,5.6517856E3,5.370622E3,1.8032564E4,-1.791556E2,1.5507523E3,4.4558584E3,-6.4906195E2,2.924972E3,1.0628647E4,1.3712177E4,7.232548E3,8.452294E3,2.3277883E4,-4.458843E3,4.885703E3,5.627931E3,-1.8752207E3,5.407001E3,1.1016267E4,8.283835E3,1.9211922E4,3.1911357E4,4.420617E3,-6.6759893E3,-5.797383E2,2.4233357E3,8.825279E3],"split_indices":[0,2,2,0,2,0,1,1,0,2,3,0,1,2,4,3,4,3,0,1,1,4,0,2,1,0,0,3,2,1,4,2,2,4,1,4,4,3,1,0,0,0,2,1,1,0,2,0,0,0,0,0,0,0,0,0,0,0,0,0,0,0,0,0,0,0,0,0,0,0,0,0,0,0,0,0,0,0,0,0,0,0,0,0,0],"split_type":[0,0,0,0,0,0,0,0,0,0,0,0,0,0,0,0,0,0,0,0,0,0,0,0,0,0,0,0,0,0,0,0,0,0,0,0,0,0,0,0,0,0,0,0,0,0,0,0,0,0,0,0,0,0,0,0,0,0,0,0,0,0,0,0,0,0,0,0,0,0,0,0,0,0,0,0,0,0,0,0,0,0,0,0,0],"sum_hessian":[8E3,6.99E3,1.01E3,1E0,6.989E3,7.94E2,2.16E2,5.891E3,1.098E3,7.66E2,2.8E1,1.53E2,6.3E1,3.872E3,2.019E3,9.16E2,1.82E2,5.49E2,2.17E2,2.6E1,2E0,1.5E2,3E0,3.6E1,2.7E1,1E0,3.871E3,1.737E3,2.82E2,1.2E1,9.04E2,1.58E2,2.4E1,4.68E2,8.1E1,1.86E2,3.1E1,1.8E1,8E0,1E0,1E0,4.7E1,1.03E2,1.7E1,1.9E1,2E0,2.5E1,3.242E3,6.29E2,1.266E3,4.71E2,2.35E2,4.7E1,1E1,2E0,6.5E2,2.54E2,7.4E1,8.4E1,1.4E1,1E1,2.9E2,1.78E2,6.5E1,1.6E1,1.79E2,7E0,3E0,2.8E1,1.1E1,7E0,1E0,7E0,4E1,7E0,3.3E1,7E1,8E0,9E0,1.8E1,1E0,1E0,1E0,3E0,2.2E1],"tree_param":{"num_deleted":"0","num_feature":"5","num_nodes":"85","size_leaf_vector":"1"}},{"base_weights":[1.8706218E2,7.969666E4,1.2067169E2,-1.2393622E3,9.523754E3,-2.6697078E3,1.8473589E3,3.892715E3,2.285634E4,-5.29293E3,-2.1541155E3,-4.8264523E2,5.5726504E3,2.407434E3,1.0461729E4,1.9635055E4,5.017539E4,3.1714916E4,-5.475694E3,-2.0115695E3,-7.983327E3,5.997896E3,-1.5762048E3,1.3870969E4,1.377074E3,-2.0041588E3,5.0744946E3,4.337388E3,1.7636576E4,1.3655628E4,2.6360307E4,1.1061997E3,5.5024562E4,3.816137E3,1.3304745E4,-1.5507872E3,-2.0597686E3,-7.32035E2,3.0973306E2,-3.274652E2,-2.5062227E3,6.203911E2,4.4177393E3,-8.1177203E2,6.8377673E2,1.7633458E3,6.0386514E3,9.288496E1,2.5453396E3,-1.462124E3,3.5554184E2,3.5016619E3,7.975703E2,7.960505E2,4.353641E3,1.6920168E4,4.15817E3,4.6843613E3,5.981377E2,7.375623E2,8.870438E3,1.0826202E4,2.07093E4],"categories":[],"categories_nodes":[],"categories_segments":[],"categories_sizes":[],"default_left":[0,0,0,0,0,0,0,0,0,0,0,0,0,0,0,0,0,0,0,0,0,0,0,0,0,0,0,0,0,0,0,0,0,0,0,0,0,0,0,0,0,0,0,0,0,0,0,0,0,0,0,0,0,0,0,0,0,0,0,0,0,0,0],"id":6,"left_children":[1,-1,3,5,7,9,11,13,15,17,19,21,23,25,27,29,31,33,35,37,39,41,43,45,47,49,51,53,55,57,59,-1,61,-1,-1,-1,-1,-1,-1,-1,-1,-1,-1,-1,-1,-1,-1,-1,-1,-1,-1,-1,-1,-1,-1,-1,-1,-1,-1,-1,-1,-1,-1],"loss_changes":[1.409822E11,0E0,1.0231988E11,3.0866328E10,7.581317E10,6.4495575E9,1.9220087E10,6.921679E9,2.5415533E10,5.476393E9,3.3026785E9,9.668841E9,2.9644327E10,6.857973E9,5.6797993E9,1.0497589E10,6.7853926E9,3.957801E8,2.9718323E8,5.090083E9,2.336169E8,6.726648E9,5.0890604E9,1.418743E10,4.2991094E9,2.0192095E9,5.75504E9,1.1950767E9,8.000645E9,3.2813158E9,9.588048E9,0E0,4.9356636E9,0E0,0E0,0E0,0E0,0E0,0E0,0E0,0E0,0E0,0E0,0E0,0E0,0E0,0E0,0E0,0E0,0E0,0E0,0E0,0E0,0E0,0E0,0E0,0E0,0E0,0E0,0E0,0E0,0E0,0E0],"parents":[2147483647,0,0,2,2,3,3,4,4,5,5,6,6,7,7,8,8,9,9,10,10,11,11,12,12,13,13,14,14,15,15,16,16,17,17,18,18,19,19,20,20,21,21,22,22,23,23,24,24,25,25,26,26,27,27,28,28,29,29,30,30,32,32],"right_children":[2,-1,4,6,8,10,12,14,16,18,20,22,24,26,28,30,32,34,36,38,40,42,44,46,48,50,52,54,56,58,60,-1,62,-1,-1,-1,-1,-1,-1,-1,-1,-1,-1,-1,-1,-1,-1,-1,-1,-1,-1,-1,-1,-1,-1,-1,-1,-1,-1,-1,-1,-1,-1],"split_conditions":[1.939E3,7.969666E4,2.82E2,2.014E3,2.018E3,1.999E3,5.6E1,4.6E2,5.1E2,1.963E3,9.9E1,3E0,6.9E1,5.12E2,2.013E3,3.6E2,1.3E1,1.3E1,6.9E1,9.8E1,4.47E2,9.8E1,7.42E2,3.14E2,2.38E2,5.8E1,5.22E2,7.18E2,2.07E2,3.4E0,2.6E0,1.1061997E3,2.022E3,3.816137E3,1.3304745E4,-1.5507872E3,-2.0597686E3,-7.32035E2,3.0973306E2,-3.274652E2,-2.5062227E3,6.203911E2,4.4177393E3,-8.1177203E2,6.8377673E2,1.7633458E3,6.0386514E3,9.288496E1,2.5453396E3,-1.462124E3,3.5554184E2,3.5016619E3,7.975703E2,7.960505E2,4.353641E3,1.6920168E4,4.15817E3,4.6843613E3,5.981377E2,7.375623E2,8.870438E3,1.0826202E4,2.07093E4],"split_indices":[2,0,0,2,2,2,3,0,0,2,3,3,3,1,2,0,1,1,3,3,1,1,1,1,0,3,1,1,1,4,4,0,2,0,0,0,0,0,0,0,0,0,0,0,0,0,0,0,0,0,0,0,0,0,0,0,0,0,0,0,0,0,0],"split_type":[0,0,0,0,0,0,0,0,0,0,0,0,0,0,0,0,0,0,0,0,0,0,0,0,0,0,0,0,0,0,0,0,0,0,0,0,0,0,0,0,0,0,0,0,0,0,0,0,0,0,0,0,0,0,0,0,0,0,0,0,0,0,0],"sum_hessian":[8E3,1E0,7.999E3,6.989E3,1.01E3,4.776E3,2.213E3,7.11E2,2.99E2,7.83E2,3.993E3,1.362E3,8.51E2,5.81E2,1.3E2,2.69E2,3E1,3E0,7.8E2,3.899E3,9.4E1,1.96E2,1.166E3,2.85E2,5.66E2,2.19E2,3.62E2,7.1E1,5.9E1,1.44E2,1.25E2,3E0,2.7E1,2E0,1E0,6.43E2,1.37E2,3.418E3,4.81E2,5E0,8.9E1,1.36E2,6E1,9.02E2,2.64E2,1.26E2,1.59E2,4.93E2,7.3E1,1.15E2,1.04E2,9.6E1,2.66E2,6.2E1,9E0,4E0,5.5E1,1.23E2,2.1E1,1.5E1,1.1E2,1.3E1,1.4E1],"tree_param":{"num_deleted":"0","num_feature":"5","num_nodes":"63","size_leaf_vector":"1"}},{"base_weights":[1.537226E2,6.774216E4,9.7290016E1,-7.944426E2,7.303918E3,-1.3800807E3,3.651431E3,3.4300945E3,2.514607E4,-2.9187659E3,-6.282442E2,3.0118386E3,2.0018621E4,2.0866147E3,9.924811E3,1.7798041E4,4.2490273E4,3.133726E4,-2.967166E3,-2.9355815E3,8.091245E1,5.656327E2,6.559353E3,2.3593088E4,1.5443E4,2.8107625E4,1.7332454E3,-4.508998E2,1.1466128E4,2.2450957E4,7.0785516E2,6.347939E4,1.2030449E4,2.7927334E3,1.1309033E4,-1.0051997E3,-2.60346E2,-1.3099832E3,-6.633929E2,-2.5010452E1,5.11884E3,-6.987974E2,6.228749E2,1.1679562E3,3.3866152E3,5.3410293E3,-7.9514185E3,4.2558384E3,1.1544778E4,-7.208551E2,8.718474E2,8.183278E2,-4.858169E3,1.2684959E4,3.054883E3,6.07801E3,1.643049E4,-8.194706E3,1.299697E3,9.282503E3,2.1996152E4,-5.7643125E3,4.405859E3],"categories":[],"categories_nodes":[],"categories_segments":[],"categories_sizes":[],"default_left":[0,0,0,0,0,0,0,0,0,0,0,0,0,0,0,0,0,0,0,0,0,0,0,0,0,0,0,0,0,0,0,0,0,0,0,0,0,0,0,0,0,0,0,0,0,0,0,0,0,0,0,0,0,0,0,0,0,0,0,0,0,0,0],"id":7,"left_children":[1,-1,3,5,7,9,11,13,15,17,19,21,23,25,27,29,31,33,35,37,39,41,43,-1,45,47,49,51,53,55,57,59,61,-1,-1,-1,-1,-1,-1,-1,-1,-1,-1,-1,-1,-1,-1,-1,-1,-1,-1,-1,-1,-1,-1,-1,-1,-1,-1,-1,-1,-1,-1],"loss_changes":[1.0186442E11,0E0,5.1416883E10,1.854319E10,6.0806136E10,7.277003E9,8.617954E9,6.3052923E9,1.9252732E10,3.5167396E9,6.9183606E9,6.9299717E9,7.1011256E9,5.486688E9,1.9882097E9,8.890257E9,2.8645261E10,6.93417E7,1.6580096E9,1.02057984E9,9.026408E9,2.0777197E9,4.0666726E9,0E0,3.4423142E9,6.095621E8,2.8934938E9,8.9488064E8,3.8401843E9,5.1212206E9,2.6576013E9,6.3769395E9,1.9417536E9,0E0,0E0,0E0,0E0,0E0,0E0,0E0,0E0,0E0,0E0,0E0,0E0,0E0,0E0,0E0,0E0,0E0,0E0,0E0,0E0,0E0,0E0,0E0,0E0,0E0,0E0,0E0,0E0,0E0,0E0],"parents":[2147483647,0,0,2,2,3,3,4,4,5,5,6,6,7,7,8,8,9,9,10,10,11,11,12,12,13,13,14,14,15,15,16,16,17,17,18,18,19,19,20,20,21,21,22,22,24,24,25,25,26,26,27,27,28,28,29,29,30,30,31,31,32,32],"right_children":[2,-1,4,6,8,10,12,14,16,18,20,22,24,26,28,30,32,34,36,38,40,42,44,-1,46,48,50,52,54,56,58,60,62,-1,-1,-1,-1,-1,-1,-1,-1,-1,-1,-1,-1,-1,-1,-1,-1,-1,-1,-1,-1,-1,-1,-1,-1,-1,-1,-1,-1,-1,-1],"split_conditions":[1.939E3,6.774216E4,2.021E3,2.82E2,2.9E0,1.15E2,5.71E2,2.4E2,6.82E2,1.956E3,2.006E3,2.014E3,1.83E2,3E0,2.55E2,8.8E1,7.18E2,9.7E1,9.8E1,1.998E3,4.4E0,2.01E3,6.82E2,2.3593088E4,8.3E1,2.022E3,1.24E2,2.25E2,3E2,5.09E2,2.52E2,2.022E3,3.2E2,2.7927334E3,1.1309033E4,-1.0051997E3,-2.60346E2,-1.3099832E3,-6.633929E2,-2.5010452E1,5.11884E3,-6.987974E2,6.228749E2,1.1679562E3,3.3866152E3,5.3410293E3,-7.9514185E3,4.2558384E3,1.1544778E4,-7.208551E2,8.718474E2,8.183278E2,-4.858169E3,1.2684959E4,3.054883E3,6.07801E3,1.643049E4,-8.194706E3,1.299697E3,9.282503E3,2.1996152E4,-5.7643125E3,4.405859E3],"split_indices":[2,0,2,0,4,0,0,0,1,2,2,2,1,3,1,3,1,0,3,2,4,2,1,0,3,2,0,1,1,0,0,2,0,0,0,0,0,0,0,0,0,0,0,0,0,0,0,0,0,0,0,0,0,0,0,0,0,0,0,0,0,0,0],"split_type":[0,0,0,0,0,0,0,0,0,0,0,0,0,0,0,0,0,0,0,0,0,0,0,0,0,0,0,0,0,0,0,0,0,0,0,0,0,0,0,0,0,0,0,0,0,0,0,0,0,0,0,0,0,0,0,0,0,0,0,0,0,0,0],"sum_hessian":[8E3,1E0,7.999E3,7.119E3,8.8E2,6.291E3,8.28E2,7.24E2,1.56E2,2.064E3,4.227E3,7.98E2,3E1,6.01E2,1.23E2,1.11E2,4.5E1,2E0,2.062E3,9.93E2,3.234E3,4.73E2,3.25E2,1E0,2.9E1,7E0,5.94E2,1.6E1,1.07E2,8.7E1,2.4E1,2.6E1,1.9E1,1E0,1E0,1.743E3,3.19E2,3.32E2,6.61E2,3.204E3,3E1,1.62E2,3.11E2,2.09E2,1.16E2,2.8E1,1E0,4E0,3E0,1.31E2,4.63E2,1.4E1,2E0,3E0,1.04E2,8.3E1,4E0,2E0,2.2E1,7E0,1.9E1,1E0,1.8E1],"tree_param":{"num_deleted":"0","num_feature":"5","num_nodes":"63","size_leaf_vector":"1"}},{"base_weights":[1.3039613E2,5.758084E4,8.24284E1,-7.6334564E2,4.0771091E3,-1.0823553E3,2.7494692E3,1.7867701E3,1.2859805E4,-1.849726E3,3.4043018E2,-3.0886203E2,7.303767E3,-2.9013884E3,2.6318289E3,1.1115929E4,3.2544814E4,-1.4538472E3,-4.7149326E3,-4.1558707E2,3.7632778E3,-4.402328E3,6.545605E2,5.254785E3,1.520079E4,-9.761834E3,-1.7615785E3,1.8157622E3,6.403205E3,7.792086E3,2.0358855E4,3.7202223E4,1.1215742E3,6.961956E3,-4.445955E2,-1.00344916E3,-2.776705E3,-5.596954E2,2.4912749E2,1.6902238E3,-7.780325E2,-6.1310834E2,-2.5246333E3,1.3429692E3,-4.3077823E2,1.8210514E3,-1.9387842E3,6.6594854E3,2.0628652E3,-1.2433381E3,-3.4212134E3,-9.9983966E2,2.3473345E3,4.2060493E3,4.521133E2,5.243649E2,2.6991995E3,1.854684E3,9.067593E3,2.7405701E4,5.078219E3,1.2225852E4,1.0493423E3,-1.2110063E3,2.489454E3],"categories":[],"categories_nodes":[],"categories_segments":[],"categories_sizes":[],"default_left":[0,0,0,0,0,0,0,0,0,0,0,0,0,0,0,0,0,0,0,0,0,0,0,0,0,0,0,0,0,0,0,0,0,0,0,0,0,0,0,0,0,0,0,0,0,0,0,0,0,0,0,0,0,0,0,0,0,0,0,0,0,0,0,0,0],"id":8,"left_children":[1,-1,3,5,7,9,11,13,15,17,19,21,23,25,27,29,31,33,35,37,39,41,43,45,47,49,51,53,55,57,59,61,63,-1,-1,-1,-1,-1,-1,-1,-1,-1,-1,-1,-1,-1,-1,-1,-1,-1,-1,-1,-1,-1,-1,-1,-1,-1,-1,-1,-1,-1,-1,-1,-1],"loss_changes":[7.359726E10,0E0,2.703189E10,7.402444E9,2.8098281E10,6.61041E9,7.6629586E9,4.4052E9,9.559093E9,4.4542464E9,5.492731E9,1.3043149E9,3.4960937E9,1.3121364E9,2.884484E9,8.0441467E9,3.3243443E9,2.4331556E9,2.9365975E9,3.1435702E9,4.5812014E9,5.791263E8,2.1477082E9,1.7303219E9,2.4686612E9,1.7413402E8,2.240156E9,2.898851E9,2.001048E9,6.96354E9,1.5506432E10,2.250881E9,1.815724E8,0E0,0E0,0E0,0E0,0E0,0E0,0E0,0E0,0E0,0E0,0E0,0E0,0E0,0E0,0E0,0E0,0E0,0E0,0E0,0E0,0E0,0E0,0E0,0E0,0E0,0E0,0E0,0E0,0E0,0E0,0E0,0E0],"parents":[2147483647,0,0,2,2,3,3,4,4,5,5,6,6,7,7,8,8,9,9,10,10,11,11,12,12,13,13,14,14,15,15,16,16,17,17,18,18,19,19,20,20,21,21,22,22,23,23,24,24,25,25,26,26,27,27,28,28,29,29,30,30,31,31,32,32],"right_children":[2,-1,4,6,8,10,12,14,16,18,20,22,24,26,28,30,32,34,36,38,40,42,44,46,48,50,52,54,56,58,60,62,64,-1,-1,-1,-1,-1,-1,-1,-1,-1,-1,-1,-1,-1,-1,-1,-1,-1,-1,-1,-1,-1,-1,-1,-1,-1,-1,-1,-1,-1,-1,-1,-1],"split_conditions":[1.939E3,5.758084E4,2.018E3,3.9E0,2.6E0,6.36E2,2.012E3,1.2E2,5.09E2,5.53E2,2.6E0,2.003E3,2.015E3,5E-1,2.49E2,6.82E2,6.88E2,1.963E3,1.91E2,7.42E2,3.2E0,1.93E2,3.2E2,9.7E0,5.9E1,2.07E2,8.7E1,3E0,4.1E1,4.4E0,2.49E2,4.5E0,8.56E2,6.961956E3,-4.445955E2,-1.00344916E3,-2.776705E3,-5.596954E2,2.4912749E2,1.6902238E3,-7.780325E2,-6.1310834E2,-2.5246333E3,1.3429692E3,-4.3077823E2,1.8210514E3,-1.9387842E3,6.6594854E3,2.0628652E3,-1.2433381E3,-3.4212134E3,-9.9983966E2,2.3473345E3,4.2060493E3,4.521133E2,5.243649E2,2.6991995E3,1.854684E3,9.067593E3,2.7405701E4,5.078219E3,1.2225852E4,1.0493423E3,-1.2110063E3,2.489454E3],"split_indices":[2,0,2,4,4,1,2,0,0,1,4,2,2,4,0,1,1,2,0,1,4,0,0,4,3,1,3,3,3,4,0,4,1,0,0,0,0,0,0,0,0,0,0,0,0,0,0,0,0,0,0,0,0,0,0,0,0,0,0,0,0,0,0,0,0],"split_type":[0,0,0,0,0,0,0,0,0,0,0,0,0,0,0,0,0,0,0,0,0,0,0,0,0,0,0,0,0,0,0,0,0,0,0,0,0,0,0,0,0,0,0,0,0,0,0,0,0,0,0,0,0,0,0,0,0,0,0,0,0,0,0,0,0],"sum_hessian":[8E3,1E0,7.999E3,6.602E3,1.397E3,6.053E3,5.49E2,1.109E3,2.88E2,3.932E3,2.121E3,3.29E2,2.2E2,1.69E2,9.4E2,2.66E2,2.2E1,3.456E3,4.76E2,1.738E3,3.83E2,6.2E1,2.67E2,1.76E2,4.4E1,2.3E1,1.46E2,7.74E2,1.66E2,1.97E2,6.9E1,1.9E1,3E0,3E0,3.453E3,3.67E2,1.09E2,8.03E2,9.35E2,2.96E2,8.7E1,4E1,2.2E1,9.4E1,1.73E2,1.65E2,1.1E1,2.3E1,2.1E1,6E0,1.7E1,1.26E2,2E1,1.8E1,7.56E2,6E1,1.06E2,1.85E2,1.2E1,2E0,6.7E1,1.7E1,2E0,2E0,1E0],"tree_param":{"num_deleted":"0","num_feature":"5","num_nodes":"65","size_leaf_vector":"1"}},{"base_weights":[1.0750283E2,4.8943707E4,6.672984E1,-3.8205795E2,4.8143013E3,-1.287359E3,5.9411865E2,2.4137566E3,1.5664658E4,-2.0334174E3,-6.231422E2,-5.973018E2,2.451436E3,2.4308096E2,3.6803157E3,1.9212688E4,-8.0059253E3,8.568385E3,-2.0665579E3,-7.4737256E2,1.1167003E4,2.39845E3,-1.2543586E3,5.3109966E3,-2.4218665E2,4.8148774E3,-9.629198E2,-4.5438257E3,4.0282278E3,6.299119E3,2.3387898E4,-8.813393E3,-4.834049E3,-7.6184717E2,-2.3425095E1,-6.48095E2,-5.7115364E1,2.0883413E3,1.4292646E4,-8.204864E2,1.0224509E3,-1.6002748E2,-1.462345E3,1.9780965E4,1.5362891E3,-4.536897E2,6.978277E2,-4.464981E1,9.321868E3,-5.0126873E1,-9.350373E2,-2.5974004E3,2.680397E3,6.1694185E3,1.056773E3,1.4127417E4,-7.3852E2,2.5670605E3,1.0992091E4,-4.7831377E3,4.99581E2],"categories":[],"categories_nodes":[],"categories_segments":[],"categories_sizes":[],"default_left":[0,0,0,0,0,0,0,0,0,0,0,0,0,0,0,0,0,0,0,0,0,0,0,0,0,0,0,0,0,0,0,0,0,0,0,0,0,0,0,0,0,0,0,0,0,0,0,0,0,0,0,0,0,0,0,0,0,0,0,0,0],"id":9,"left_children":[1,-1,3,5,7,9,11,13,15,17,19,21,23,25,27,29,31,-1,33,35,37,39,41,43,45,47,49,51,53,55,57,-1,59,-1,-1,-1,-1,-1,-1,-1,-1,-1,-1,-1,-1,-1,-1,-1,-1,-1,-1,-1,-1,-1,-1,-1,-1,-1,-1,-1,-1],"loss_changes":[5.3176185E10,0E0,1.7047056E10,6.460859E9,1.7960507E10,1.8783329E9,7.7862564E9,1.5579517E9,1.0651808E10,1.8698972E9,2.9494508E9,4.2232136E9,1.0592332E10,1.1624902E9,1.0426414E9,5.729616E9,1.01040666E9,0E0,1.6784404E9,1.5641306E9,2.889957E9,2.0100746E9,4.5881605E9,7.3467597E9,2.3162778E9,5.7394606E9,2.857365E8,9.091488E8,2.803986E9,1.0122427E10,1.580331E10,0E0,1.181843E9,0E0,0E0,0E0,0E0,0E0,0E0,0E0,0E0,0E0,0E0,0E0,0E0,0E0,0E0,0E0,0E0,0E0,0E0,0E0,0E0,0E0,0E0,0E0,0E0,0E0,0E0,0E0,0E0],"parents":[2147483647,0,0,2,2,3,3,4,4,5,5,6,6,7,7,8,8,9,9,10,10,11,11,12,12,13,13,14,14,15,15,16,16,18,18,19,19,20,20,21,21,22,22,23,23,24,24,25,25,26,26,27,27,28,28,29,29,30,30,32,32],"right_children":[2,-1,4,6,8,10,12,14,16,18,20,22,24,26,28,30,32,-1,34,36,38,40,42,44,46,48,50,52,54,56,58,-1,60,-1,-1,-1,-1,-1,-1,-1,-1,-1,-1,-1,-1,-1,-1,-1,-1,-1,-1,-1,-1,-1,-1,-1,-1,-1,-1,-1,-1],"split_conditions":[1.939E3,4.8943707E4,2.022E3,2.011E3,2.9E0,6.7E1,5.6E1,1.6E0,8.8E1,1.955E3,6.4E0,7E0,7.2E1,3.35E2,1.6E2,4.5E1,1.53E2,8.568385E3,7.42E2,2E3,6.7E2,6.9E1,2.04E2,5.7E1,2.6E0,3.09E2,7.98E2,2.023E3,1.83E2,3.58E2,4.49E2,-8.813393E3,3.4E0,-7.6184717E2,-2.3425095E1,-6.48095E2,-5.7115364E1,2.0883413E3,1.4292646E4,-8.204864E2,1.0224509E3,-1.6002748E2,-1.462345E3,1.9780965E4,1.5362891E3,-4.536897E2,6.978277E2,-4.464981E1,9.321868E3,-5.0126873E1,-9.350373E2,-2.5974004E3,2.680397E3,6.1694185E3,1.056773E3,1.4127417E4,-7.3852E2,2.5670605E3,1.0992091E4,-4.7831377E3,4.99581E2],"split_indices":[2,0,2,2,4,3,3,4,3,2,4,3,3,1,1,3,0,0,1,2,1,1,0,3,4,1,1,2,1,1,1,0,4,0,0,0,0,0,0,0,0,0,0,0,0,0,0,0,0,0,0,0,0,0,0,0,0,0,0,0,0],"split_type":[0,0,0,0,0,0,0,0,0,0,0,0,0,0,0,0,0,0,0,0,0,0,0,0,0,0,0,0,0,0,0,0,0,0,0,0,0,0,0,0,0,0,0,0,0,0,0,0,0,0,0,0,0,0,0,0,0,0,0,0,0],"sum_hessian":[8E3,1E0,7.999E3,7.309E3,6.9E2,3.792E3,3.517E3,5.66E2,1.24E2,1.785E3,2.007E3,2.143E3,1.374E3,2.09E2,3.57E2,1.08E2,1.6E1,1E0,1.784E3,1.987E3,2E1,3.85E2,1.758E3,6.66E2,7.08E2,4.3E1,1.66E2,1.4E1,3.43E2,2.7E1,8.1E1,1E0,1.5E1,1.441E3,3.43E2,5.61E2,1.426E3,1.9E1,1E0,6.3E1,3.22E2,1.467E3,2.91E2,1E0,6.65E2,4.74E2,2.34E2,3.7E1,6E0,1.22E2,4.4E1,1.1E1,3E0,9E0,3.34E2,4E0,2.3E1,3.9E1,4.2E1,5E0,1E1],"tree_param":{"num_deleted":"0","num_feature":"5","num_nodes":"61","size_leaf_vector":"1"}},{"base_weights":[9.0499565E1,4.1602145E4,5.5842426E1,-2.6147607E2,3.412633E3,-3.70398E2,4.975842E3,1.7171445E3,1.1076068E4,-8.045883E2,4.456028E2,9.851407E3,1.1889291E3,2.905138E3,3.329045E2,1.4082037E4,-4.4812095E3,-5.004215E2,-2.9855251E3,-4.6315137E2,2.1880134E3,2.4391797E3,6.4840215E3,2.8102164E4,-4.870599E2,8.199756E2,9.893611E3,1.1418918E4,-2.892439E2,4.887557E3,1.720208E4,-8.403292E3,-5.3013074E2,-2.2095491E2,9.243242E2,-6.6206024E2,-2.2080557E3,8.0238226E2,-2.119788E2,2.133648E2,1.4356919E3,2.9971582E3,-1.7967784E3,-3.4107405E3,1.2243683E4,-7.522355E2,7.555723E3,5.1357433E1,3.1101948E3,3.812163E2,4.788521E3,4.3323486E3,7.590527E1,2.202859E2,-1.1303291E3,1.0736839E4,-5.2619635E2,2.7254533E4,4.519736E3,-8.328308E2,5.984604E3],"categories":[],"categories_nodes":[],"categories_segments":[],"categories_sizes":[],"default_left":[0,0,0,0,0,0,0,0,0,0,0,0,0,0,0,0,0,0,0,0,0,0,0,0,0,0,0,0,0,0,0,0,0,0,0,0,0,0,0,0,0,0,0,0,0,0,0,0,0,0,0,0,0,0,0,0,0,0,0,0,0],"id":10,"left_children":[1,-1,3,5,7,9,11,13,15,17,19,21,23,25,27,29,31,33,35,37,39,41,-1,43,45,47,49,51,53,55,57,-1,59,-1,-1,-1,-1,-1,-1,-1,-1,-1,-1,-1,-1,-1,-1,-1,-1,-1,-1,-1,-1,-1,-1,-1,-1,-1,-1,-1,-1],"loss_changes":[3.8420275E10,0E0,8.522266E9,4.1718968E9,8.959327E9,2.5378524E9,2.7393252E9,9.3144614E8,5.908691E9,3.0997532E9,3.9405693E9,5.61415E9,3.8477215E9,4.4363786E9,1.8172521E9,2.9280788E9,1.9374771E9,3.472505E9,1.9321969E9,1.2515822E9,3.2688479E9,2.6693256E9,0E0,2.9724227E9,4.2645501E9,1.4600476E9,3.6424515E9,4.6879104E8,8.928591E8,5.809392E9,1.0903069E10,0E0,9.2928134E8,0E0,0E0,0E0,0E0,0E0,0E0,0E0,0E0,0E0,0E0,0E0,0E0,0E0,0E0,0E0,0E0,0E0,0E0,0E0,0E0,0E0,0E0,0E0,0E0,0E0,0E0,0E0,0E0],"parents":[2147483647,0,0,2,2,3,3,4,4,5,5,6,6,7,7,8,8,9,9,10,10,11,11,12,12,13,13,14,14,15,15,16,16,17,17,18,18,19,19,20,20,21,21,23,23,24,24,25,25,26,26,27,27,28,28,29,29,30,30,32,32],"right_children":[2,-1,4,6,8,10,12,14,16,18,20,22,24,26,28,30,32,34,36,38,40,42,-1,44,46,48,50,52,54,56,58,-1,60,-1,-1,-1,-1,-1,-1,-1,-1,-1,-1,-1,-1,-1,-1,-1,-1,-1,-1,-1,-1,-1,-1,-1,-1,-1,-1,-1,-1],"split_conditions":[1.939E3,4.1602145E4,2.022E3,4.6E2,2.9E0,6.33E2,4.01E2,9.3E1,7.8E1,5.52E2,2.013E3,3.69E2,2.009E3,5.6E1,2.07E2,4.5E1,2.65E2,5.04E2,2.45E2,6.41E2,5.6E1,5.7E1,6.4840215E3,7.18E2,2.02E3,2.1E0,2.02E2,2.24E2,6.41E2,3.58E2,2.49E2,-8.403292E3,4.4E0,-2.2095491E2,9.243242E2,-6.6206024E2,-2.2080557E3,8.0238226E2,-2.119788E2,2.133648E2,1.4356919E3,2.9971582E3,-1.7967784E3,-3.4107405E3,1.2243683E4,-7.522355E2,7.555723E3,5.1357433E1,3.1101948E3,3.812163E2,4.788521E3,4.3323486E3,7.590527E1,2.202859E2,-1.1303291E3,1.0736839E4,-5.2619635E2,2.7254533E4,4.519736E3,-8.328308E2,5.984604E3],"split_indices":[2,0,2,0,4,1,1,3,3,1,2,1,2,3,1,3,1,1,0,1,3,3,0,1,2,4,0,0,1,1,0,0,4,0,0,0,0,0,0,0,0,0,0,0,0,0,0,0,0,0,0,0,0,0,0,0,0,0,0,0,0],"split_type":[0,0,0,0,0,0,0,0,0,0,0,0,0,0,0,0,0,0,0,0,0,0,0,0,0,0,0,0,0,0,0,0,0,0,0,0,0,0,0,0,0,0,0,0,0,0,0,0,0,0,0,0,0,0,0,0,0,0,0,0,0],"sum_hessian":[8E3,1E0,7.999E3,7.309E3,6.9E2,7.161E3,1.48E2,5.66E2,1.24E2,4.674E3,2.487E3,6.4E1,8.4E1,3.04E2,2.62E2,1.04E2,2E1,4.103E3,5.71E2,1.635E3,8.52E2,4E1,2.4E1,4E0,8E1,2.35E2,6.9E1,1.3E1,2.49E2,2.7E1,7.7E1,2E0,1.8E1,3.85E3,2.53E2,4.86E2,8.5E1,1.17E2,1.518E3,5.44E2,3.08E2,2.1E1,1.9E1,1E0,3E0,7.5E1,5E0,2.21E2,1.4E1,2.9E1,4E1,1E1,3E0,1.93E2,5.6E1,4E0,2.3E1,1E0,7.6E1,1.7E1,1E0],"tree_param":{"num_deleted":"0","num_feature":"5","num_nodes":"61","size_leaf_vector":"1"}},{"base_weights":[7.779237E1,3.536183E4,4.833391E1,-5.5624146E2,1.00968896E3,-9.9497363E2,6.660799E2,-5.354248E2,2.0009152E3,-8.0388025E2,-3.4475532E3,3.2764402E3,-3.46983E2,-3.5186505E2,-5.1646543E3,1.8965072E3,3.4329723E4,-2.469459E3,-5.6339484E2,-3.696418E3,6.110743E3,2.841003E3,1.5776231E4,3.3086177E3,-9.04114E2,-1.6830643E3,3.2453647E2,-5.8557085E3,3.8899185E3,8.973521E2,4.0691233E3,2.1683928E4,-2.7152363E3,-6.5337665E2,-1.290967E3,-1.9163773E2,1.5143616E3,7.894394E2,-1.2224796E3,1.7926486E2,2.4589534E3,-2.3383784E2,1.0328995E3,2.963169E3,9.054249E3,7.279437E2,1.1423815E4,-9.0689105E2,5.7160915E1,-4.1241254E2,-2.5212505E3,2.4607445E1,1.0271271E3,-1.4126776E3,-3.4225205E3,1.0859991E2,1.3917737E3,4.14409E2,3.074328E3,-1.099522E3,2.0141016E1],"categories":[],"categories_nodes":[],"categories_segments":[],"categories_sizes":[],"default_left":[0,0,0,0,0,0,0,0,0,0,0,0,0,0,0,0,0,0,0,0,0,0,0,0,0,0,0,0,0,0,0,0,0,0,0,0,0,0,0,0,0,0,0,0,0,0,0,0,0,0,0,0,0,0,0,0,0,0,0,0,0],"id":11,"left_children":[1,-1,3,5,7,9,11,13,15,17,19,21,23,25,27,29,31,33,35,37,39,41,43,45,47,49,51,53,-1,55,57,-1,59,-1,-1,-1,-1,-1,-1,-1,-1,-1,-1,-1,-1,-1,-1,-1,-1,-1,-1,-1,-1,-1,-1,-1,-1,-1,-1,-1,-1],"loss_changes":[2.7758242E10,0E0,4.650254E9,2.6348293E9,4.7320515E9,1.6914772E9,3.4336448E9,1.0246688E9,6.287368E9,1.342445E9,6.4343475E8,1.9309435E9,1.9092942E9,1.0477408E9,6.522862E8,4.0709038E9,8.631402E9,2.1676749E8,1.2441061E9,6.214966E8,7.559686E7,7.698683E8,7.215698E8,3.711008E9,1.8862536E9,8.008636E8,5.7995206E8,2.32827E8,0E0,2.5764803E9,9.800399E9,0E0,1.0817258E7,0E0,0E0,0E0,0E0,0E0,0E0,0E0,0E0,0E0,0E0,0E0,0E0,0E0,0E0,0E0,0E0,0E0,0E0,0E0,0E0,0E0,0E0,0E0,0E0,0E0,0E0,0E0,0E0],"parents":[2147483647,0,0,2,2,3,3,4,4,5,5,6,6,7,7,8,8,9,9,10,10,11,11,12,12,13,13,14,14,15,15,16,16,17,17,18,18,19,19,20,20,21,21,22,22,23,23,24,24,25,25,26,26,27,27,29,29,30,30,32,32],"right_children":[2,-1,4,6,8,10,12,14,16,18,20,22,24,26,28,30,32,34,36,38,40,42,44,46,48,50,52,54,-1,56,58,-1,60,-1,-1,-1,-1,-1,-1,-1,-1,-1,-1,-1,-1,-1,-1,-1,-1,-1,-1,-1,-1,-1,-1,-1,-1,-1,-1,-1,-1],"split_conditions":[1.939E3,3.536183E4,1.84E2,2.1E0,2.013E3,1.63E2,2.3E0,9.9E1,6.2E0,2.4E1,1.82E2,2.018E3,2.6E1,2.008E3,3.6E2,6.82E2,3.58E2,1.8E1,2.023E3,2.08E2,3.58E2,2.1E2,1.74E2,2.018E3,5.9E1,4.05E2,9.6E1,2.82E2,3.8899185E3,3.9E0,5.5E1,2.1683928E4,4.35E2,-6.5337665E2,-1.290967E3,-1.9163773E2,1.5143616E3,7.894394E2,-1.2224796E3,1.7926486E2,2.4589534E3,-2.3383784E2,1.0328995E3,2.963169E3,9.054249E3,7.279437E2,1.1423815E4,-9.0689105E2,5.7160915E1,-4.1241254E2,-2.5212505E3,2.4607445E1,1.0271271E3,-1.4126776E3,-3.4225205E3,1.0859991E2,1.3917737E3,4.14409E2,3.074328E3,-1.099522E3,2.0141016E1],"split_indices":[2,0,0,4,2,0,4,3,4,3,0,2,3,2,0,1,1,3,2,1,1,1,0,2,3,0,3,0,0,4,3,0,0,0,0,0,0,0,0,0,0,0,0,0,0,0,0,0,0,0,0,0,0,0,0,0,0,0,0,0,0],"split_type":[0,0,0,0,0,0,0,0,0,0,0,0,0,0,0,0,0,0,0,0,0,0,0,0,0,0,0,0,0,0,0,0,0,0,0,0,0,0,0,0,0,0,0,0,0,0,0,0,0,0,0,0,0,0,0,0,0,0,0,0,0],"sum_hessian":[8E3,1E0,7.999E3,4.911E3,3.088E3,3.614E3,1.297E3,1.207E3,1.881E3,3.354E3,2.6E2,3.62E2,9.35E2,1.162E3,4.5E1,1.876E3,5E0,4.22E2,2.932E3,2.54E2,6E0,3.51E2,1.1E1,1.23E2,8.12E2,3.91E2,7.71E2,4.4E1,1E0,1.286E3,5.9E2,2E0,3E0,3.66E2,5.6E1,2.894E3,3.8E1,1.4E1,2.4E2,2E0,4E0,5E1,3.01E2,9E0,2E0,1.21E2,2E0,2.76E2,5.36E2,3.75E2,1.6E1,7.16E2,5.5E1,3.8E1,6E0,1.126E3,1.6E2,4.12E2,1.78E2,2E0,1E0],"tree_param":{"num_deleted":"0","num_feature":"5","num_nodes":"61","size_leaf_vector":"1"}},{"base_weights":[6.493204E1,8.297345E4,3.3829338E1,3.0057545E4,7.2805103E3,-1.7189421E2,2.2098054E3,-2.4284952E2,3.360312E3,5.3846246E2,5.623747E3,-1.7319847E2,-3.686904E3,-1.9586066E3,5.15142E3,1.9208322E4,4.1632846E2,3.1854685E3,1.3190991E4,-3.5100934E2,7.7160724E2,-2.9311313E3,-1.5979709E4,-3.2492606E2,-4.6193013E3,1.7935598E4,3.516765E3,1.4543672E3,7.1893784E3,-1.1260546E4,5.942755E2,-2.4778875E3,5.1958506E3,2.813657E4,3.8467585E3,-6.878958E1,-1.2612421E3,4.7183078E2,-6.782972E2,-2.23681E3,-7.6462476E2,-1.853802E3,-7.2705728E3,2.9262283E2,-1.0866683E3,-1.716053E3,1.4538105E3,6.354396E2,8.679359E3,6.817126E2,3.9117146E3,-1.3677539E3,-5.6027925E3,3.703284E2,-8.3700354E2,4.345284E2,-3.2066504E3,7.741044E3,1.0820939E3,1.6918445E4,6.0881455E3,2.7223282E2,1.0469095E4],"categories":[],"categories_nodes":[],"categories_segments":[],"categories_sizes":[],"default_left":[0,0,0,0,0,0,0,0,0,0,0,0,0,0,0,0,0,0,0,0,0,0,0,0,0,0,0,0,0,0,0,0,0,0,0,0,0,0,0,0,0,0,0,0,0,0,0,0,0,0,0,0,0,0,0,0,0,0,0,0,0,0,0],"id":12,"left_children":[1,3,5,-1,-1,7,9,11,13,15,17,19,21,23,25,27,29,31,33,35,37,39,41,43,45,47,49,-1,-1,51,53,55,57,59,61,-1,-1,-1,-1,-1,-1,-1,-1,-1,-1,-1,-1,-1,-1,-1,-1,-1,-1,-1,-1,-1,-1,-1,-1,-1,-1,-1,-1],"loss_changes":[2.0629205E10,6.009221E8,3.5811284E9,0E0,0E0,1.8326619E9,3.9397258E9,1.718356E9,1.3819428E9,1.0523076E9,4.1463695E9,1.1804476E9,1.2724223E9,1.593279E8,2.1938788E9,8.872858E7,9.6874336E8,1.9825678E9,7.572789E9,2.7720402E9,2.7077028E9,2.1457907E8,4.975003E8,1.0643551E8,1.7360227E8,2.02579E9,1.119765E9,0E0,0E0,2.6270733E8,9.935162E8,1.4984654E9,4.0980134E9,3.5096054E9,3.162657E9,0E0,0E0,0E0,0E0,0E0,0E0,0E0,0E0,0E0,0E0,0E0,0E0,0E0,0E0,0E0,0E0,0E0,0E0,0E0,0E0,0E0,0E0,0E0,0E0,0E0,0E0,0E0,0E0],"parents":[2147483647,0,0,1,1,2,2,5,5,6,6,7,7,8,8,9,9,10,10,11,11,12,12,13,13,14,14,15,15,16,16,17,17,18,18,19,19,20,20,21,21,22,22,23,23,24,24,25,25,26,26,29,29,30,30,31,31,32,32,33,33,34,34],"right_children":[2,4,6,-1,-1,8,10,12,14,16,18,20,22,24,26,28,30,32,34,36,38,40,42,44,46,48,50,-1,-1,52,54,56,58,60,62,-1,-1,-1,-1,-1,-1,-1,-1,-1,-1,-1,-1,-1,-1,-1,-1,-1,-1,-1,-1,-1,-1,-1,-1,-1,-1,-1,-1],"split_conditions":[1.955E3,8.6E1,2.022E3,3.0057545E4,7.2805103E3,5.7E0,2.31E2,9.9E1,1.37E2,3E0,6.7E2,7.42E2,3.33E2,2.007E3,1.83E2,1.85E2,5.5E1,3.35E2,6.88E2,7.4E2,6.9E1,7.6E1,2.01E3,5.3E1,5.09E2,2.009E3,2.016E3,1.4543672E3,7.1893784E3,5.8E1,7.66E2,5.8E1,4.1E2,2.49E2,3.7E0,-6.878958E1,-1.2612421E3,4.7183078E2,-6.782972E2,-2.23681E3,-7.6462476E2,-1.853802E3,-7.2705728E3,2.9262283E2,-1.0866683E3,-1.716053E3,1.4538105E3,6.354396E2,8.679359E3,6.817126E2,3.9117146E3,-1.3677539E3,-5.6027925E3,3.703284E2,-8.3700354E2,4.345284E2,-3.2066504E3,7.741044E3,1.0820939E3,1.6918445E4,6.0881455E3,2.7223282E2,1.0469095E4],"split_indices":[2,0,2,0,0,4,0,3,1,3,1,1,0,2,1,0,1,1,1,1,3,0,2,3,0,2,2,0,0,0,1,3,1,0,4,0,0,0,0,0,0,0,0,0,0,0,0,0,0,0,0,0,0,0,0,0,0,0,0,0,0,0,0],"split_type":[0,0,0,0,0,0,0,0,0,0,0,0,0,0,0,0,0,0,0,0,0,0,0,0,0,0,0,0,0,0,0,0,0,0,0,0,0,0,0,0,0,0,0,0,0,0,0,0,0,0,0,0,0,0,0,0,0,0,0,0,0,0,0],"sum_hessian":[8E3,2E0,7.998E3,1E0,1E0,7.308E3,6.9E2,7.165E3,1.43E2,4.64E2,2.26E2,7.024E3,1.41E2,3.6E1,1.07E2,2E0,4.62E2,1.72E2,5.4E1,5.912E3,1.112E3,1.34E2,7E0,2.3E1,1.3E1,1.1E1,9.6E1,1E0,1E0,6E0,4.56E2,4.5E1,1.27E2,2E1,3.4E1,5.732E3,1.8E2,8.8E2,2.32E2,9E0,1.25E2,4E0,3E0,1.7E1,6E0,1.2E1,1E0,5E0,6E0,8.6E1,1E1,4E0,2E0,3.84E2,7.2E1,3.1E1,1.4E1,8E0,1.19E2,3E0,1.7E1,3.2E1,2E0],"tree_param":{"num_deleted":"0","num_feature":"5","num_nodes":"63","size_leaf_vector":"1"}},{"base_weights":[5.5142914E1,7.0527445E4,2.87056E1,2.554892E4,6.188433E3,-5.203632E2,5.23487E2,-1.00877924E3,-8.592946E1,4.420423E2,6.146665E3,-9.885865E2,-3.8021196E3,-1.6718408E2,7.610266E3,6.812996E1,1.3242385E3,1.1358619E4,-1.6044158E3,-8.203383E2,-1.7916569E3,5.554139E2,-8.106319E2,3.9440627E3,1.214015E4,1.9696958E3,-1.8455211E2,9.5331494E2,8.44737E3,9.433675E3,1.1809754E4,7.282041E3,-6.2365576E3,-1.6569299E3,-2.3631667E2,-6.642825E2,3.2857227E2,-7.555951E0,1.8684707E3,-1.02116714E2,-8.5878265E2,-3.4509695E2,3.5188296E3,4.878071E2,5.455373E3,-6.927015E2,1.0710124E2,3.3239014E2,-1.8615001E3,6.9217876E3,1.4305084E3,2.426059E2,4.1695527E3,-3.7966045E3,1.973473E3],"categories":[],"categories_nodes":[],"categories_segments":[],"categories_sizes":[],"default_left":[0,0,0,0,0,0,0,0,0,0,0,0,0,0,0,0,0,0,0,0,0,0,0,0,0,0,0,0,0,0,0,0,0,0,0,0,0,0,0,0,0,0,0,0,0,0,0,0,0,0,0,0,0,0,0],"id":13,"left_children":[1,3,5,-1,-1,7,9,11,13,15,17,19,-1,21,23,25,27,29,31,33,35,37,39,41,-1,43,45,47,49,51,-1,-1,53,-1,-1,-1,-1,-1,-1,-1,-1,-1,-1,-1,-1,-1,-1,-1,-1,-1,-1,-1,-1,-1,-1],"loss_changes":[1.4904625E10,4.3416986E8,2.1733532E9,0E0,0E0,8.045165E8,1.924455E9,4.0792256E8,1.2569779E9,1.3685158E9,2.4421204E9,2.3944051E8,0E0,9.247788E8,2.370057E9,1.4009966E9,3.2549875E9,1.5694807E9,3.1481336E9,2.2204736E8,3.7820224E8,3.0862996E9,1.014129E9,8.0672614E8,0E0,1.8762616E9,2.9622387E9,1.307657E9,3.1721738E9,1.3365804E9,0E0,0E0,1.8928712E9,0E0,0E0,0E0,0E0,0E0,0E0,0E0,0E0,0E0,0E0,0E0,0E0,0E0,0E0,0E0,0E0,0E0,0E0,0E0,0E0,0E0,0E0],"parents":[2147483647,0,0,1,1,2,2,5,5,6,6,7,7,8,8,9,9,10,10,11,11,13,13,14,14,15,15,16,16,17,17,18,18,19,19,20,20,21,21,22,22,23,23,25,25,26,26,27,27,28,28,29,29,32,32],"right_children":[2,4,6,-1,-1,8,10,12,14,16,18,20,-1,22,24,26,28,30,32,34,36,38,40,42,-1,44,46,48,50,52,-1,-1,54,-1,-1,-1,-1,-1,-1,-1,-1,-1,-1,-1,-1,-1,-1,-1,-1,-1,-1,-1,-1,-1,-1],"split_conditions":[1.955E3,8.6E1,2.011E3,2.554892E4,6.188433E3,6.7E1,5.44E2,1.3E1,6.4E0,6.73E2,4.01E2,2.7E0,-3.8021196E3,7.4E1,6.7E2,1.1E1,2.023E3,6.2E0,3.9E0,2E0,3.96E2,7.18E2,6.46E2,2.009E3,1.214015E4,3.2E0,3.7E1,9.9E1,6.88E2,3.09E2,1.1809754E4,7.282041E3,2.016E3,-1.6569299E3,-2.3631667E2,-6.642825E2,3.2857227E2,-7.555951E0,1.8684707E3,-1.02116714E2,-8.5878265E2,-3.4509695E2,3.5188296E3,4.878071E2,5.455373E3,-6.927015E2,1.0710124E2,3.3239014E2,-1.8615001E3,6.9217876E3,1.4305084E3,2.426059E2,4.1695527E3,-3.7966045E3,1.973473E3],"split_indices":[2,0,2,0,0,3,0,4,4,1,1,4,0,3,1,3,2,4,4,3,0,1,1,2,0,4,3,3,1,1,0,0,2,0,0,0,0,0,0,0,0,0,0,0,0,0,0,0,0,0,0,0,0,0,0],"split_type":[0,0,0,0,0,0,0,0,0,0,0,0,0,0,0,0,0,0,0,0,0,0,0,0,0,0,0,0,0,0,0,0,0,0,0,0,0,0,0,0,0,0,0,0,0,0,0,0,0,0,0,0,0,0,0],"sum_hessian":[8E3,2E0,7.998E3,1E0,1E0,3.791E3,4.207E3,1.784E3,2.007E3,4.148E3,5.9E1,1.782E3,2E0,1.987E3,2E1,2.914E3,1.234E3,3.5E1,2.4E1,1.475E3,3.07E2,9.36E2,1.051E3,1.9E1,1E0,3.41E2,2.573E3,1.174E3,6E1,3.4E1,1E0,3E0,2.1E1,9E0,1.466E3,2.68E2,3.9E1,8.5E2,8.6E1,8.56E2,1.95E2,1.2E1,7E0,3.35E2,6E0,5.22E2,2.051E3,1.15E3,2.4E1,1.1E1,4.9E1,1.2E1,2.2E1,1.4E1,7E0],"tree_param":{"num_deleted":"0","num_feature":"5","num_nodes":"55","size_leaf_vector":"1"}},{"base_weights":[4.8071587E1,5.9948344E4,2.5600166E1,2.1716588E4,5.2601675E3,-1.1631969E2,1.1723673E3,1.6479254E4,-1.23298805E2,-1.076911E1,3.8073772E3,1.2273486E3,6.188316E3,-1.3518854E3,-3.3446884E1,1.5174051E4,-2.1254285E2,2.3116362E3,8.860437E3,-7.199517E2,-3.0018015E3,-3.6935062E2,3.4787463E2,1.389991E3,7.366942E3,-8.8441185E1,-9.416036E3,3.3695051E3,-6.1154E3,2.0117584E4,6.8070474E3,1.2305088E3,-2.5752768E2,-8.518475E2,-2.7428547E3,-5.7027664E1,-5.3828735E2,1.0038291E4,9.793219E1,1.8691057E2,-4.7208145E2,-1.6811812E3,-5.41511E3,8.8183734E2,6.7572974E3,-4.2865713E3,3.6051033E3,1.2634434E3,4.153161E3],"categories":[],"categories_nodes":[],"categories_segments":[],"categories_sizes":[],"default_left":[0,0,0,0,0,0,0,0,0,0,0,0,0,0,0,0,0,0,0,0,0,0,0,0,0,0,0,0,0,0,0,0,0,0,0,0,0,0,0,0,0,0,0,0,0,0,0,0,0],"id":14,"left_children":[1,3,5,-1,-1,7,9,11,13,15,17,-1,-1,19,21,23,25,27,29,31,33,35,37,-1,-1,39,41,43,45,-1,47,-1,-1,-1,-1,-1,-1,-1,-1,-1,-1,-1,-1,-1,-1,-1,-1,-1,-1],"loss_changes":[1.0768165E10,3.136891E8,1.3019657E9,0E0,0E0,8.265723E8,2.7466255E9,6.978336E7,7.856065E8,1.869139E9,2.042871E9,0E0,0E0,5.0351808E8,8.497317E8,6.774043E8,6.867529E8,1.9105225E9,6.9527485E9,2.3854152E8,1.0760397E8,9.005696E8,2.1942602E9,0E0,0E0,6.296924E8,1.621662E8,1.4906737E9,3.7284884E9,0E0,1.05583514E9,0E0,0E0,0E0,0E0,0E0,0E0,0E0,0E0,0E0,0E0,0E0,0E0,0E0,0E0,0E0,0E0,0E0,0E0],"parents":[2147483647,0,0,1,1,2,2,5,5,6,6,7,7,8,8,9,9,10,10,13,13,14,14,15,15,16,16,17,17,18,18,19,19,20,20,21,21,22,22,25,25,26,26,27,27,28,28,30,30],"right_children":[2,4,6,-1,-1,8,10,12,14,16,18,-1,-1,20,22,24,26,28,30,32,34,36,38,-1,-1,40,42,44,46,-1,48,-1,-1,-1,-1,-1,-1,-1,-1,-1,-1,-1,-1,-1,-1,-1,-1,-1,-1],"split_conditions":[1.955E3,8.6E1,2.021E3,2.1716588E4,5.2601675E3,1E0,2.4E2,1.88E2,1.997E3,3E0,6.82E2,1.2273486E3,6.188316E3,2.1E2,5.6E1,1.88E2,1.05E2,4.35E2,2.49E2,1.973E3,2.38E2,2.7E0,5.7E1,1.389991E3,7.366942E3,6.56E2,5.8E1,4.2E0,5.1E2,2.0117584E4,4.05E2,1.2305088E3,-2.5752768E2,-8.518475E2,-2.7428547E3,-5.7027664E1,-5.3828735E2,1.0038291E4,9.793219E1,1.8691057E2,-4.7208145E2,-1.6811812E3,-5.41511E3,8.8183734E2,6.7572974E3,-4.2865713E3,3.6051033E3,1.2634434E3,4.153161E3],"split_indices":[2,0,2,0,0,3,0,0,2,3,1,0,0,1,3,0,3,0,0,2,0,4,3,0,0,1,0,4,0,0,0,0,0,0,0,0,0,0,0,0,0,0,0,0,0,0,0,0,0],"split_type":[0,0,0,0,0,0,0,0,0,0,0,0,0,0,0,0,0,0,0,0,0,0,0,0,0,0,0,0,0,0,0,0,0,0,0,0,0,0,0,0,0,0,0,0,0,0,0,0,0],"sum_hessian":[8E3,2E0,7.998E3,1E0,1E0,7.118E3,8.8E2,2E0,7.116E3,6.08E2,2.72E2,1E0,1E0,4.84E2,6.632E3,7E0,6.01E2,2.11E2,6.1E1,3.51E2,1.33E2,3.526E3,3.106E3,4E0,3E0,5.94E2,7E0,1.88E2,2.3E1,1E0,6E1,9E0,3.42E2,1.31E2,2E0,3.133E3,3.93E2,1E0,3.105E3,4.02E2,1.92E2,6E0,1E0,1.85E2,3E0,1.6E1,7E0,4.5E1,1.5E1],"tree_param":{"num_deleted":"0","num_feature":"5","num_nodes":"49","size_leaf_vector":"1"}},{"base_weights":[4.3046032E1,5.095608E4,2.3945877E1,1.8459094E4,4.4711416E3,-5.9272235E2,2.5551042E2,-6.1713423E3,-5.200315E2,5.123704E2,-7.2267914E2,-7.727563E3,-2.0273685E3,-4.46201E2,-4.6253135E3,2.7353235E2,2.8082175E3,-2.6287908E3,-1.10771355E2,-2.2743354E3,-9.902208E3,1.0894153E3,-1.2488773E3,-6.4384796E2,6.317003E2,7.7591534E2,-9.034685E3,7.255596E2,-4.0670627E2,1.8725388E2,6.6492476E3,-1.8065369E3,-8.471428E3,-1.0560507E3,1.2158792E3,-1.5692169E3,2.3195984E3,-3.383356E3,-3.296685E2,-1.5713255E2,-7.533734E2,-9.869473E1,4.6629388E2,8.494678E1,9.435982E2,5.887887E2,-2.9048047E3,-4.2690265E2,2.972397E2,-1.9967165E2,7.825896E2,4.421922E0,4.4710645E3,3.076865E3,1.0397617E3,-2.573285E2,-9.7754926E2,-3.7650386E3,-8.6961685E1,3.614828E3,-3.6064392E2,1.0268789E3,-1.2784956E0],"categories":[],"categories_nodes":[],"categories_segments":[],"categories_sizes":[],"default_left":[0,0,0,0,0,0,0,0,0,0,0,0,0,0,0,0,0,0,0,0,0,0,0,0,0,0,0,0,0,0,0,0,0,0,0,0,0,0,0,0,0,0,0,0,0,0,0,0,0,0,0,0,0,0,0,0,0,0,0,0,0,0,0],"id":15,"left_children":[1,3,5,-1,-1,7,9,11,13,15,17,19,21,23,25,27,29,31,33,35,37,-1,-1,39,41,43,45,47,49,51,53,55,57,59,61,-1,-1,-1,-1,-1,-1,-1,-1,-1,-1,-1,-1,-1,-1,-1,-1,-1,-1,-1,-1,-1,-1,-1,-1,-1,-1,-1,-1],"loss_changes":[7.779327E9,2.2663987E8,1.1423967E9,0E0,0E0,8.824341E8,1.4616855E9,1.6490362E8,6.517124E8,2.525414E9,1.4110099E9,2.1465574E8,1.238784E8,4.520598E8,9.120192E8,1.2837434E9,4.3679196E9,1.3971103E9,1.1512526E9,2.4752202E8,1.5715008E8,0E0,0E0,4.0049325E8,2.9211654E8,2.012528E7,1.686542E8,1.4306808E9,1.3029431E9,6.5732134E8,1.985344E9,3.5399936E8,1.1976863E9,1.04073946E9,1.02870714E9,0E0,0E0,0E0,0E0,0E0,0E0,0E0,0E0,0E0,0E0,0E0,0E0,0E0,0E0,0E0,0E0,0E0,0E0,0E0,0E0,0E0,0E0,0E0,0E0,0E0,0E0,0E0,0E0],"parents":[2147483647,0,0,1,1,2,2,5,5,6,6,7,7,8,8,9,9,10,10,11,11,12,12,13,13,14,14,15,15,16,16,17,17,18,18,19,19,20,20,23,23,24,24,25,25,26,26,27,27,28,28,29,29,30,30,31,31,32,32,33,33,34,34],"right_children":[2,4,6,-1,-1,8,10,12,14,16,18,20,22,24,26,28,30,32,34,36,38,-1,-1,40,42,44,46,48,50,52,54,56,58,60,62,-1,-1,-1,-1,-1,-1,-1,-1,-1,-1,-1,-1,-1,-1,-1,-1,-1,-1,-1,-1,-1,-1,-1,-1,-1,-1,-1,-1],"split_conditions":[1.955E3,8.6E1,1.15E2,1.8459094E4,4.4711416E3,5E-1,7.2E1,1E2,1.12E2,2.021E3,8E1,2.07E2,1.05E2,9.8E1,2.015E3,2.3E0,5.5E1,2.015E3,2.6E0,5.8E1,8.3E1,1.0894153E3,-1.2488773E3,7.9E1,8.9E1,1.9E0,2.07E2,1.6E0,5.6E0,5.4E0,3.01E2,1.61E2,2.022E3,8.3E1,3E0,-1.5692169E3,2.3195984E3,-3.383356E3,-3.296685E2,-1.5713255E2,-7.533734E2,-9.869473E1,4.6629388E2,8.494678E1,9.435982E2,5.887887E2,-2.9048047E3,-4.2690265E2,2.972397E2,-1.9967165E2,7.825896E2,4.421922E0,4.4710645E3,3.076865E3,1.0397617E3,-2.573285E2,-9.7754926E2,-3.7650386E3,-8.6961685E1,3.614828E3,-3.6064392E2,1.0268789E3,-1.2784956E0],"split_indices":[2,0,0,0,0,4,3,3,0,2,3,1,3,3,2,4,3,2,4,0,0,0,0,3,0,4,1,4,4,4,0,0,2,3,4,0,0,0,0,0,0,0,0,0,0,0,0,0,0,0,0,0,0,0,0,0,0,0,0,0,0,0,0],"split_type":[0,0,0,0,0,0,0,0,0,0,0,0,0,0,0,0,0,0,0,0,0,0,0,0,0,0,0,0,0,0,0,0,0,0,0,0,0,0,0,0,0,0,0,0,0,0,0,0,0,0,0,0,0,0,0,0,0,0,0,0,0,0,0],"sum_hessian":[8E3,2E0,7.998E3,1E0,1E0,2.183E3,5.815E3,2.7E1,2.156E3,4.606E3,1.209E3,1.9E1,8E0,2.119E3,3.7E1,4.173E3,4.33E2,2.93E2,9.16E2,6E0,1.3E1,2E0,6E0,1.791E3,3.28E2,1.7E1,2E1,2.507E3,1.666E3,2.58E2,1.75E2,2.58E2,3.5E1,5.35E2,3.81E2,5E0,1E0,1.1E1,2E0,1.684E3,1.07E2,1.61E2,1.67E2,1.5E1,2E0,1E0,1.9E1,2.75E2,2.232E3,1.535E3,1.31E2,2.56E2,2E0,8.1E1,9.4E1,1.57E2,1.01E2,2.3E1,1.2E1,5E0,5.3E2,1.35E2,2.46E2],"tree_param":{"num_deleted":"0","num_feature":"5","num_nodes":"63","size_leaf_vector":"1"}},{"base_weights":[3.3408833E1,4.3312656E4,1.717291E1,1.5690226E4,3.8004705E3,3.4622147E1,-5.782506E3,1.2872079E1,5.1148037E3,-4.504315E3,-5.2771343E3,-2.8636737E2,3.301122E2,8.41516E3,3.5697656E3,-3.1335303E3,-1.023216E4,8.353097E2,-4.6612366E2,-9.1676135E2,7.466289E2,9.659371E3,-8.714465E2,-1.2042532E3,-1.3807657E3,-1.0244296E3,-4.602652E3,-5.231143E2,4.1407565E2,-4.9445538E1,-7.9532477E2,4.752095E1,-1.0052839E3,5.472005E2,-3.8976646E1,-2.3609824E3,3.4839482E3,2.140284E3,-9.9563116E2,1.3483246E2,-7.1448694E2],"categories":[],"categories_nodes":[],"categories_segments":[],"categories_sizes":[],"default_left":[0,0,0,0,0,0,0,0,0,0,0,0,0,0,0,0,0,0,0,0,0,0,0,0,0,0,0,0,0,0,0,0,0,0,0,0,0,0,0,0,0],"id":16,"left_children":[1,3,5,-1,-1,7,9,11,13,15,-1,17,19,-1,21,23,25,27,29,31,33,35,37,39,-1,-1,-1,-1,-1,-1,-1,-1,-1,-1,-1,-1,-1,-1,-1,-1,-1],"loss_changes":[5.6213873E9,1.637463E8,8.0969875E8,0E0,0E0,8.8123674E8,2.8299437E8,7.5412966E8,1.1047096E9,1.4852496E8,0E0,8.246467E8,2.0032737E9,0E0,9.009102E8,5.114037E7,8.695798E7,7.9646874E8,2.319551E9,2.5286963E9,2.7304164E9,5.708749E8,4.1552915E8,2.0540504E7,0E0,0E0,0E0,0E0,0E0,0E0,0E0,0E0,0E0,0E0,0E0,0E0,0E0,0E0,0E0,0E0,0E0],"parents":[2147483647,0,0,1,1,2,2,5,5,6,6,7,7,8,8,9,9,11,11,12,12,14,14,15,15,16,16,17,17,18,18,19,19,20,20,21,21,22,22,23,23],"right_children":[2,4,6,-1,-1,8,10,12,14,16,-1,18,20,-1,22,24,26,28,30,32,34,36,38,40,-1,-1,-1,-1,-1,-1,-1,-1,-1,-1,-1,-1,-1,-1,-1,-1,-1],"split_conditions":[1.955E3,8.6E1,1.05E2,1.5690226E4,3.8004705E3,5.71E2,5.71E2,5.6E1,1.83E2,2.023E3,-5.2771343E3,3E0,2.55E2,8.41516E3,4.2E0,1.1E0,5.8E1,8.7E1,2.04E2,2.1E2,7.2E1,2E0,2.79E2,1.37E2,-1.3807657E3,-1.0244296E3,-4.602652E3,-5.231143E2,4.1407565E2,-4.9445538E1,-7.9532477E2,4.752095E1,-1.0052839E3,5.472005E2,-3.8976646E1,-2.3609824E3,3.4839482E3,2.140284E3,-9.9563116E2,1.3483246E2,-7.1448694E2],"split_indices":[2,0,3,0,0,0,0,3,1,2,0,3,1,0,4,4,0,1,0,1,3,3,1,1,0,0,0,0,0,0,0,0,0,0,0,0,0,0,0,0,0],"split_type":[0,0,0,0,0,0,0,0,0,0,0,0,0,0,0,0,0,0,0,0,0,0,0,0,0,0,0,0,0,0,0,0,0,0,0,0,0,0,0,0,0],"sum_hessian":[8E3,2E0,7.998E3,1E0,1E0,7.975E3,2.3E1,7.942E3,3.3E1,2.2E1,1E0,4.087E3,3.855E3,1E0,3.2E1,1.9E1,3E0,5.64E2,3.523E3,9.65E2,2.89E3,1.3E1,1.9E1,9E0,1E1,2E0,1E0,9.8E1,4.66E2,3.097E3,4.26E2,6.7E2,2.95E2,1.296E3,1.594E3,1E0,1.2E1,4E0,1.5E1,4E0,5E0],"tree_param":{"num_deleted":"0","num_feature":"5","num_nodes":"41","size_leaf_vector":"1"}},{"base_weights":[2.5374002E1,3.681575E4,1.1572715E1,1.3336688E4,3.2304001E3,-2.7926135E2,3.2806335E2,-2.0287132E2,-1.923234E3,3.9027817E1,1.0935574E3,-2.6617905E2,4.325593E3,-3.2645688E3,1.9731707E3,4.8511694E2,-8.121715E2,5.5096245E3,5.4451215E2,-2.9962393E2,3.2617659E3,3.555286E2,7.3877217E3,-6.8902783E2,-5.179352E3,-9.80551E2,1.941362E4,2.6434686E2,3.8613274E3,-1.3897374E4,-4.894209E2,2.3118473E4,2.6655535E3,6.948984E2,-5.728104E3,-2.9786075E2,-6.181213E1,2.3025657E3,-5.469839E2,6.7334784E2,-8.1071014E2,5.066951E3,8.1983215E2,3.9659283E2,-8.232293E2,1.6307778E3,-1.8378917E3,-6.2081825E1,-3.290557E3,-1.2166235E3,1.561724E4,6.1001217E1,2.9090354E3,6.83484E2,5.45684E3,-2.176577E3,-5.814414E3,-3.8815802E2,6.7303125E2,5.1904E3,1.6556336E4,3.352496E2,5.509784E3,1.5239354E2,2.7074463E3,1.1767697E3,-2.2375037E3],"categories":[],"categories_nodes":[],"categories_segments":[],"categories_sizes":[],"default_left":[0,0,0,0,0,0,0,0,0,0,0,0,0,0,0,0,0,0,0,0,0,0,0,0,0,0,0,0,0,0,0,0,0,0,0,0,0,0,0,0,0,0,0,0,0,0,0,0,0,0,0,0,0,0,0,0,0,0,0,0,0,0,0,0,0,0,0],"id":17,"left_children":[1,3,5,-1,-1,7,9,11,13,15,17,19,21,23,25,27,29,31,33,35,37,39,41,43,45,47,49,51,53,55,57,59,61,63,65,-1,-1,-1,-1,-1,-1,-1,-1,-1,-1,-1,-1,-1,-1,-1,-1,-1,-1,-1,-1,-1,-1,-1,-1,-1,-1,-1,-1,-1,-1,-1,-1],"loss_changes":[4.0621181E9,1.1830656E8,7.363696E8,0E0,0E0,5.2316573E8,8.475853E8,1.143598E9,9.733224E8,1.05674944E9,2.542852E9,4.648026E8,6.660001E8,6.769924E8,2.491719E9,1.3600182E9,4.0348557E9,5.747751E9,8.859803E8,2.5248874E8,8.443704E8,1.504718E8,1.3250314E9,2.5159283E8,8.274236E8,3.2225622E8,5.5739505E9,9.849559E8,2.4989568E9,6.9716685E8,2.0584236E9,2.0300042E9,2.4342884E9,1.4185396E9,3.9661146E8,0E0,0E0,0E0,0E0,0E0,0E0,0E0,0E0,0E0,0E0,0E0,0E0,0E0,0E0,0E0,0E0,0E0,0E0,0E0,0E0,0E0,0E0,0E0,0E0,0E0,0E0,0E0,0E0,0E0,0E0,0E0,0E0],"parents":[2147483647,0,0,1,1,2,2,5,5,6,6,7,7,8,8,9,9,10,10,11,11,12,12,13,13,14,14,15,15,16,16,17,17,18,18,19,19,20,20,21,21,22,22,23,23,24,24,25,25,26,26,27,27,28,28,29,29,30,30,31,31,32,32,33,33,34,34],"right_children":[2,4,6,-1,-1,8,10,12,14,16,18,20,22,24,26,28,30,32,34,36,38,40,42,44,46,48,50,52,54,56,58,60,62,64,66,-1,-1,-1,-1,-1,-1,-1,-1,-1,-1,-1,-1,-1,-1,-1,-1,-1,-1,-1,-1,-1,-1,-1,-1,-1,-1,-1,-1,-1,-1,-1,-1],"split_conditions":[1.955E3,8.6E1,2.012E3,1.3336688E4,3.2304001E3,3.2E2,6.82E2,4.6E0,7.18E2,2.4E0,6.88E2,3E2,1.23E2,5.8E1,6.2E1,2.1E0,1.23E2,2.49E2,4.5E0,1.997E3,3.82E2,5.3E1,3.93E2,5E0,1.6E2,5.09E2,3.6E2,6.73E2,2.02E3,2.015E3,3.9E0,2.022E3,2.023E3,4.35E2,3.75E2,-2.9786075E2,-6.181213E1,2.3025657E3,-5.469839E2,6.7334784E2,-8.1071014E2,5.066951E3,8.1983215E2,3.9659283E2,-8.232293E2,1.6307778E3,-1.8378917E3,-6.2081825E1,-3.290557E3,-1.2166235E3,1.561724E4,6.1001217E1,2.9090354E3,6.83484E2,5.45684E3,-2.176577E3,-5.814414E3,-3.8815802E2,6.7303125E2,5.1904E3,1.6556336E4,3.352496E2,5.509784E3,1.5239354E2,2.7074463E3,1.1767697E3,-2.2375037E3],"split_indices":[2,0,2,0,0,0,1,4,1,4,1,0,1,3,3,4,1,0,4,2,1,3,1,4,1,0,0,1,2,2,4,2,2,0,0,0,0,0,0,0,0,0,0,0,0,0,0,0,0,0,0,0,0,0,0,0,0,0,0,0,0,0,0,0,0,0,0],"split_type":[0,0,0,0,0,0,0,0,0,0,0,0,0,0,0,0,0,0,0,0,0,0,0,0,0,0,0,0,0,0,0,0,0,0,0,0,0,0,0,0,0,0,0,0,0,0,0,0,0,0,0,0,0,0,0,0,0,0,0,0,0,0,0,0,0,0,0],"sum_hessian":[8E3,2E0,7.998E3,1E0,1E0,4.168E3,3.83E3,3.984E3,1.84E2,2.781E3,1.049E3,3.93E3,5.4E1,1.37E2,4.7E1,1.825E3,9.56E2,1.15E2,9.34E2,3.894E3,3.6E1,2.4E1,3E1,5.9E1,7.8E1,4.1E1,6E0,1.714E3,1.11E2,2.2E1,9.34E2,1.5E1,1E2,9.13E2,2.1E1,4.62E2,3.432E3,1.9E1,1.7E1,1.5E1,9E0,9E0,2.1E1,3E1,2.9E1,6E0,7.2E1,3.9E1,2E0,4E0,2E0,1.704E3,1E1,1.01E2,1E1,1.1E1,1.1E1,7.22E2,2.12E2,1.4E1,1E0,9.2E1,8E0,8.94E2,1.9E1,3E0,1.8E1],"tree_param":{"num_deleted":"0","num_feature":"5","num_nodes":"67","size_leaf_vector":"1"}},{"base_weights":[2.5876034E1,3.1293365E4,1.4146025E1,1.1336176E4,2.745839E3,6.210519E1,-1.613386E3,-2.9017006E1,1.1337738E3,-1.1335215E4,-1.2557822E3,-1.3841873E2,9.221807E2,1.0223623E3,1.4387808E4,-2.411229E3,-5.162956E3,-1.1258773E3,-4.4947144E3,-8.434397E1,-4.372566E3,7.413408E2,1.0234151E4,1.4406382E3,-1.2103779E3,2.4420955E4,-3.8617173E3,-2.712342E2,-2.5165308E3,4.1537476E3,-2.7275738E1,-8.7706506E2,-2.1976045E3,2.9854358E2,-7.119503E2,3.5819573E3,2.0468253E3,2.5394608E2,1.9021498E3,7.134363E2,-1.3678077E3,9.431636E3,5.0512033E2,-1.5904411E2,9.2875946E2,-5.334655E2,-2.5414666E3],"categories":[],"categories_nodes":[],"categories_segments":[],"categories_sizes":[],"default_left":[0,0,0,0,0,0,0,0,0,0,0,0,0,0,0,0,0,0,0,0,0,0,0,0,0,0,0,0,0,0,0,0,0,0,0,0,0,0,0,0,0,0,0,0,0,0,0],"id":18,"left_children":[1,3,5,-1,-1,7,9,11,13,15,17,19,21,23,25,-1,-1,27,-1,29,31,33,35,37,39,41,-1,43,45,-1,-1,-1,-1,-1,-1,-1,-1,-1,-1,-1,-1,-1,-1,-1,-1,-1,-1],"loss_changes":[2.9340675E9,8.547584E7,6.244627E8,0E0,0E0,7.5889274E8,7.818981E8,7.455286E8,8.845712E8,1.6663424E7,3.7899142E8,1.4707025E9,1.2368712E9,5.667541E8,1.6818839E9,0E0,0E0,2.6197866E8,0E0,5.824158E8,3.2515277E8,5.762474E8,1.152E3,1.4793747E9,1.164553E9,5.8532915E8,0E0,1.2194762E8,3.5425597E8,0E0,0E0,0E0,0E0,0E0,0E0,0E0,0E0,0E0,0E0,0E0,0E0,0E0,0E0,0E0,0E0,0E0,0E0],"parents":[2147483647,0,0,1,1,2,2,5,5,6,6,7,7,8,8,9,9,10,10,11,11,12,12,13,13,14,14,17,17,19,19,20,20,21,21,22,22,23,23,24,24,25,25,27,27,28,28],"right_children":[2,4,6,-1,-1,8,10,12,14,16,18,20,22,24,26,-1,-1,28,-1,30,32,34,36,38,40,42,-1,44,46,-1,-1,-1,-1,-1,-1,-1,-1,-1,-1,-1,-1,-1,-1,-1,-1,-1,-1],"split_conditions":[1.955E3,8.6E1,9.9E1,1.1336176E4,2.745839E3,2.022E3,1E2,9.8E1,4.6E0,8.3E1,5.71E2,8.5E1,3.06E2,7.66E2,6.3E0,-2.411229E3,-5.162956E3,2E0,-4.4947144E3,1E0,1.56E2,2.02E3,3.11E2,6.73E2,1.3E1,4.67E2,-3.8617173E3,2.11E2,2.018E3,4.1537476E3,-2.7275738E1,-8.7706506E2,-2.1976045E3,2.9854358E2,-7.119503E2,3.5819573E3,2.0468253E3,2.5394608E2,1.9021498E3,7.134363E2,-1.3678077E3,9.431636E3,5.0512033E2,-1.5904411E2,9.2875946E2,-5.334655E2,-2.5414666E3],"split_indices":[2,0,3,0,0,2,3,3,4,0,0,3,0,1,4,0,0,4,0,3,0,2,0,1,3,1,0,0,2,0,0,0,0,0,0,0,0,0,0,0,0,0,0,0,0,0,0],"split_type":[0,0,0,0,0,0,0,0,0,0,0,0,0,0,0,0,0,0,0,0,0,0,0,0,0,0,0,0,0,0,0,0,0,0,0,0,0,0,0,0,0,0,0,0,0,0,0],"sum_hessian":[8E3,2E0,7.998E3,1E0,1E0,7.77E3,2.28E2,7.162E3,6.08E2,7E0,2.21E2,6.424E3,7.38E2,6.04E2,4E0,6E0,1E0,2.2E2,1E0,6.344E3,8E1,7.25E2,1.3E1,5.09E2,9.5E1,3E0,1E0,1.37E2,8.3E1,2E0,6.342E3,5.5E1,2.5E1,6.71E2,5.4E1,7E0,6E0,4.55E2,5.4E1,4.6E1,4.9E1,2E0,1E0,1.28E2,9E0,7.5E1,8E0],"tree_param":{"num_deleted":"0","num_feature":"5","num_nodes":"47","size_leaf_vector":"1"}},{"base_weights":[1.9807007E1,2.6599375E4,9.835947E0,9.635757E3,2.3339626E3,9.0011116E1,-6.9699646E2,4.8878838E1,3.4847686E3,-6.8520044E3,-5.2557684E2,2.3031137E1,5.265764E3,-1.5551504E3,7.9011143E3,6.069912E2,-2.292228E4,-1.263895E3,8.1203613E2,1.1472068E3,-4.8184776E1,7.343261E3,-5.802588E3,-5.694164E3,3.5389532E2,1.785209E4,3.8639436E3,1.8507521E3,-3.5869795E3,-1.9532192E3,-7.371725E3,-2.0343105E3,1.163166E3,4.9173164E3,-5.3460724E2,5.4987072E1,1.4866068E3,-2.6095786E2,2.3112196E1,-2.0201268E3,2.6926265E3,-1.0357067E3,-2.9625435E3,-1.3782729E2,3.4690266E3,3.0683145E3,6.8778506E3,1.6285338E3,-4.233619E3,-5.341668E2,8.018576E2,-2.4873333E3,1.5788121E3,-1.1919972E3,-3.1371588E2,2.0264229E3,-2.8163303E2,-3.8421432E2,2.0788586E3,-2.6768967E2,7.476141E3],"categories":[],"categories_nodes":[],"categories_segments":[],"categories_sizes":[],"default_left":[0,0,0,0,0,0,0,0,0,0,0,0,0,0,0,0,0,0,0,0,0,0,0,0,0,0,0,0,0,0,0,0,0,0,0,0,0,0,0,0,0,0,0,0,0,0,0,0,0,0,0,0,0,0,0,0,0,0,0,0,0],"id":19,"left_children":[1,3,5,-1,-1,7,9,11,13,15,17,19,21,23,25,27,29,31,33,35,37,39,-1,41,43,45,47,49,51,-1,-1,53,55,57,59,-1,-1,-1,-1,-1,-1,-1,-1,-1,-1,-1,-1,-1,-1,-1,-1,-1,-1,-1,-1,-1,-1,-1,-1,-1,-1],"loss_changes":[2.1202153E9,6.17568E7,4.533693E8,0E0,0E0,1.00310054E9,8.562964E8,9.572746E8,1.9264778E9,2.6510118E9,7.8516794E8,5.657536E8,1.9313197E9,3.2597933E8,1.7790149E9,9.009935E7,2.9584896E7,9.597271E8,1.5671515E9,1.5444723E9,6.839042E8,8.1864474E8,0E0,8.775597E7,2.6970342E8,2.684444E8,1.0328059E9,4.3568364E7,2.1015402E8,0E0,0E0,7.4151565E8,1.4637348E9,8.818976E8,1.9707209E9,0E0,0E0,0E0,0E0,0E0,0E0,0E0,0E0,0E0,0E0,0E0,0E0,0E0,0E0,0E0,0E0,0E0,0E0,0E0,0E0,0E0,0E0,0E0,0E0,0E0,0E0],"parents":[2147483647,0,0,1,1,2,2,5,5,6,6,7,7,8,8,9,9,10,10,11,11,12,12,13,13,14,14,15,15,16,16,17,17,18,18,19,19,20,20,21,21,23,23,24,24,25,25,26,26,27,27,28,28,31,31,32,32,33,33,34,34],"right_children":[2,4,6,-1,-1,8,10,12,14,16,18,20,22,24,26,28,30,32,34,36,38,40,-1,42,44,46,48,50,52,-1,-1,54,56,58,60,-1,-1,-1,-1,-1,-1,-1,-1,-1,-1,-1,-1,-1,-1,-1,-1,-1,-1,-1,-1,-1,-1,-1,-1,-1,-1],"split_conditions":[1.955E3,8.6E1,3.01E2,9.635757E3,2.3339626E3,4.5E0,3.06E2,3E2,2.3E2,2.014E3,2.017E3,3E0,8.3E1,4.8E0,4.6E0,3.82E2,2.72E2,4.6E2,2.019E3,2.017E3,3.7E1,2.6E1,-5.802588E3,2.006E3,2.58E2,2.017E3,6.5E0,3.35E2,4.41E2,-1.9532192E3,-7.371725E3,5.12E2,5.09E2,7E0,5.4E0,5.4987072E1,1.4866068E3,-2.6095786E2,2.3112196E1,-2.0201268E3,2.6926265E3,-1.0357067E3,-2.9625435E3,-1.3782729E2,3.4690266E3,3.0683145E3,6.8778506E3,1.6285338E3,-4.233619E3,-5.341668E2,8.018576E2,-2.4873333E3,1.5788121E3,-1.1919972E3,-3.1371588E2,2.0264229E3,-2.8163303E2,-3.8421432E2,2.0788586E3,-2.6768967E2,7.476141E3],"split_indices":[2,0,0,0,0,4,0,0,0,2,2,3,3,4,4,1,1,0,2,2,3,3,0,2,1,2,4,1,1,0,0,1,0,3,4,0,0,0,0,0,0,0,0,0,0,0,0,0,0,0,0,0,0,0,0,0,0,0,0,0,0],"split_type":[0,0,0,0,0,0,0,0,0,0,0,0,0,0,0,0,0,0,0,0,0,0,0,0,0,0,0,0,0,0,0,0,0,0,0,0,0,0,0,0,0,0,0,0,0,0,0,0,0,0,0,0,0,0,0,0,0,0,0,0,0],"sum_hessian":[8E3,2E0,7.998E3,1E0,1E0,7.184E3,8.14E2,7.099E3,8.5E1,2.1E1,7.93E2,7.065E3,3.4E1,4E1,4.5E1,1.5E1,6E0,5.11E2,2.82E2,4.2E2,6.645E3,3.2E1,2E0,1.2E1,2.8E1,1.2E1,3.3E1,1.2E1,3E0,1E0,5E0,3.88E2,1.23E2,6.9E1,2.13E2,3.36E2,8.4E1,8.78E2,5.767E3,3E0,2.9E1,9E0,3E0,2.7E1,1E0,6E0,6E0,3.1E1,2E0,2E0,1E1,2E0,1E0,1.3E2,2.58E2,3.3E1,9E1,1.7E1,5.2E1,2.11E2,2E0],"tree_param":{"num_deleted":"0","num_feature":"5","num_nodes":"61","size_leaf_vector":"1"}},{"base_weights":[1.561407E1,1.9719215E4,5.757853E0,8.190394E3,2.4274238E3,-3.8540472E2,1.253533E2,-2.4267126E2,-1.7602683E3,6.82506E2,-3.7704956E1,2.5232417E2,-5.3416284E2,-1.4753848E3,-2.8758208E3,2.197341E2,1.5030239E3,-5.9016455E2,2.759891E2,3.4668822E0,1.2094409E3,3.812054E3,-5.5845856E2,9.733258E2,-2.6448022E3,-1.7427144E2,2.497875E3,1.6570732E3,-9.583179E3,4.6427667E2,-1.1880406E3,-1.404764E3,6.9519556E2,-3.7411462E2,6.487515E1,-1.0283843E2,4.484346E2,-1.9936632E2,3.3489117E2,-3.326326E2,1.2724552E3,-9.596464E2,1.5702924E3,1.7309148E2,-2.450155E2,-1.3833405E2,1.2476967E3,7.547503E2,-7.120532E1,-5.5017593E3,-7.238794E2,-6.0097034E2,2.6401755E2,-1.526623E2,-9.4400006E2,4.8338135E2,-6.374977E2,2.8756226E1,5.17827E2],"categories":[],"categories_nodes":[],"categories_segments":[],"categories_sizes":[],"default_left":[0,0,0,0,0,0,0,0,0,0,0,0,0,0,0,0,0,0,0,0,0,0,0,0,0,0,0,0,0,0,0,0,0,0,0,0,0,0,0,0,0,0,0,0,0,0,0,0,0,0,0,0,0,0,0,0,0,0,0],"id":20,"left_children":[1,3,5,-1,-1,7,9,11,13,15,17,19,21,23,-1,25,27,29,31,33,35,-1,37,39,41,43,45,47,49,51,53,55,57,-1,-1,-1,-1,-1,-1,-1,-1,-1,-1,-1,-1,-1,-1,-1,-1,-1,-1,-1,-1,-1,-1,-1,-1,-1,-1],"loss_changes":[1.5537046E9,1.317463E8,3.7420486E8,0E0,0E0,3.671285E8,5.5656275E8,2.4513408E8,3.7823853E8,5.2633107E8,8.216205E8,1.5005267E8,3.5099373E8,4.922438E8,0E0,7.975042E8,8.6979136E8,1.0829917E9,2.1316344E9,1.33580376E8,5.809155E7,0E0,1.9050982E8,3.857664E8,5.2310426E8,3.663076E8,6.458112E8,8.042647E8,3.9522848E8,6.399016E8,1.456334E9,1.3154529E9,1.495668E9,0E0,0E0,0E0,0E0,0E0,0E0,0E0,0E0,0E0,0E0,0E0,0E0,0E0,0E0,0E0,0E0,0E0,0E0,0E0,0E0,0E0,0E0,0E0,0E0,0E0,0E0],"parents":[2147483647,0,0,1,1,2,2,5,5,6,6,7,7,8,8,9,9,10,10,11,11,12,12,13,13,15,15,16,16,17,17,18,18,19,19,20,20,22,22,23,23,24,24,25,25,26,26,27,27,28,28,29,29,30,30,31,31,32,32],"right_children":[2,4,6,-1,-1,8,10,12,14,16,18,20,22,24,-1,26,28,30,32,34,36,-1,38,40,42,44,46,48,50,52,54,56,58,-1,-1,-1,-1,-1,-1,-1,-1,-1,-1,-1,-1,-1,-1,-1,-1,-1,-1,-1,-1,-1,-1,-1,-1,-1,-1],"split_conditions":[1.956E3,8.6E1,1.08E2,8.190394E3,2.4274238E3,2.015E3,1.43E2,1.5E0,1.9E0,2.012E3,4.7E1,2.011E3,5.8E1,5.5E1,-2.8758208E3,2.4E0,2.6E0,1.3E1,3.09E2,8.6E1,1.4E1,3.812054E3,2.4E0,1.4E1,1.8E0,2.72E2,3.14E2,6.56E2,4.93E2,2.005E3,2.04E2,2.08E2,2.015E3,-3.7411462E2,6.487515E1,-1.0283843E2,4.484346E2,-1.9936632E2,3.3489117E2,-3.326326E2,1.2724552E3,-9.596464E2,1.5702924E3,1.7309148E2,-2.450155E2,-1.3833405E2,1.2476967E3,7.547503E2,-7.120532E1,-5.5017593E3,-7.238794E2,-6.0097034E2,2.6401755E2,-1.526623E2,-9.4400006E2,4.8338135E2,-6.374977E2,2.8756226E1,5.17827E2],"split_indices":[2,0,0,0,0,2,0,4,4,2,3,2,0,3,0,4,4,3,1,0,3,0,4,3,4,1,1,1,1,2,0,1,2,0,0,0,0,0,0,0,0,0,0,0,0,0,0,0,0,0,0,0,0,0,0,0,0,0,0],"split_type":[0,0,0,0,0,0,0,0,0,0,0,0,0,0,0,0,0,0,0,0,0,0,0,0,0,0,0,0,0,0,0,0,0,0,0,0,0,0,0,0,0,0,0,0,0,0,0,0,0,0,0,0,0,0,0,0,0,0,0],"sum_hessian":[8E3,3E0,7.997E3,1E0,2E0,1.872E3,6.125E3,1.697E3,1.75E2,1.386E3,4.739E3,6.29E2,1.068E3,1.7E2,5E0,8.87E2,4.99E2,1.716E3,3.023E3,5E2,1.29E2,1E0,1.067E3,5.5E1,1.15E2,7.57E2,1.3E2,4.93E2,6E0,6.21E2,1.095E3,6.03E2,2.42E3,7.2E1,4.28E2,2E1,1.09E2,1.004E3,6.3E1,3.4E1,2.1E1,1.08E2,7E0,3.49E2,4.08E2,4.7E1,8.3E1,3.39E2,1.54E2,2E0,4E0,8.9E1,5.32E2,8.14E2,2.81E2,1.16E2,4.87E2,1.531E3,8.89E2],"tree_param":{"num_deleted":"0","num_feature":"5","num_nodes":"59","size_leaf_vector":"1"}},{"base_weights":[1.1896053E1,1.9070203E4,4.7468076E0,6.961838E3,1.619754E3,4.5272434E1,-1.3704907E3,3.0572937E1,3.389374E3,-8.1730107E3,-1.1191815E3,9.231539E1,-1.1718524E3,7.025761E3,2.0727366E3,-5.1679185E3,-4.381299E3,-1.0131556E3,-3.682638E3,4.3526302E1,2.7639275E3,3.9416086E3,-1.5764253E3,1.2056148E4,6.725238E2,-4.026896E2,-1.6745416E3,-4.2276242E2,-1.9710258E3,3.311882E1,-3.1561588E2,-2.612782E2,1.4554067E3,5.372888E2,9.301357E3,-7.2817505E2,1.3201578E2,4.6482905E3,2.6125314E2,1.2637678E3,-2.0486409E3,-1.8254524E2,6.045973E2,-4.014517E2,-2.128836E3],"categories":[],"categories_nodes":[],"categories_segments":[],"categories_sizes":[],"default_left":[0,0,0,0,0,0,0,0,0,0,0,0,0,0,0,0,0,0,0,0,0,0,0,0,0,0,0,0,0,0,0,0,0,0,0,0,0,0,0,0,0,0,0,0,0],"id":21,"left_children":[1,3,5,-1,-1,7,9,11,13,15,17,19,21,-1,23,25,-1,27,-1,29,31,33,35,37,39,-1,-1,41,43,-1,-1,-1,-1,-1,-1,-1,-1,-1,-1,-1,-1,-1,-1,-1,-1],"loss_changes":[1.0900659E9,4.43328E7,4.4586528E8,0E0,0E0,3.8189245E8,3.8233667E8,5.7458266E8,8.481069E8,7.913965E7,2.501569E8,9.593532E8,7.8820774E8,0E0,4.531957E8,3.591184E6,0E0,1.2414667E8,0E0,5.2979402E8,1.00577485E9,1.5741489E9,6.03268E8,1.4033402E8,8.2541555E8,0E0,0E0,6.371348E7,2.6295254E8,0E0,0E0,0E0,0E0,0E0,0E0,0E0,0E0,0E0,0E0,0E0,0E0,0E0,0E0,0E0,0E0],"parents":[2147483647,0,0,1,1,2,2,5,5,6,6,7,7,8,8,9,9,10,10,11,11,12,12,14,14,15,15,17,17,19,19,20,20,21,21,22,22,23,23,24,24,27,27,28,28],"right_children":[2,4,6,-1,-1,8,10,12,14,16,18,20,22,-1,24,26,-1,28,-1,30,32,34,36,38,40,-1,-1,42,44,-1,-1,-1,-1,-1,-1,-1,-1,-1,-1,-1,-1,-1,-1,-1,-1],"split_conditions":[1.955E3,8.6E1,9.9E1,6.961838E3,1.619754E3,5.71E2,1E2,3.75E2,1.83E2,8.3E1,5.71E2,4.5E0,1.6E2,7.025761E3,3.9E0,2.021E3,-4.381299E3,2E0,-3.682638E3,3.4E0,5.3E1,6.9E1,5.2E0,2.021E3,4.01E2,-4.026896E2,-1.6745416E3,2.11E2,2.018E3,3.311882E1,-3.1561588E2,-2.612782E2,1.4554067E3,5.372888E2,9.301357E3,-7.2817505E2,1.3201578E2,4.6482905E3,2.6125314E2,1.2637678E3,-2.0486409E3,-1.8254524E2,6.045973E2,-4.014517E2,-2.128836E3],"split_indices":[2,0,3,0,0,0,3,0,1,0,0,4,1,0,4,2,0,4,0,4,3,3,4,2,1,0,0,0,2,0,0,0,0,0,0,0,0,0,0,0,0,0,0,0,0],"split_type":[0,0,0,0,0,0,0,0,0,0,0,0,0,0,0,0,0,0,0,0,0,0,0,0,0,0,0,0,0,0,0,0,0,0,0,0,0,0,0,0,0,0,0,0,0],"sum_hessian":[8E3,2E0,7.998E3,1E0,1E0,7.77E3,2.28E2,7.737E3,3.3E1,7E0,2.21E2,7.36E3,3.77E2,1E0,3.2E1,6E0,1E0,2.2E2,1E0,7.229E3,1.31E2,2.7E1,3.5E2,3E0,2.9E1,1E0,5E0,1.37E2,8.3E1,6.814E3,4.15E2,4.8E1,8.3E1,2.6E1,1E0,2.46E2,1.04E2,2E0,1E0,2E1,9E0,1.28E2,9E0,7.5E1,8E0],"tree_param":{"num_deleted":"0","num_feature":"5","num_nodes":"45","size_leaf_vector":"1"}},{"base_weights":[1.0531682E1,1.298174E4,2.420319E0,5.9175566E3,1.9093744E3,1.0364706E4,-1.4682709E0,4.1051895E2,4.2535986E3,1.0378226E1,-2.775596E3,-7.276611E1,4.5562015E2,6.159831E2,-3.3815916E3,-5.8395643E0,-2.4464443E3,8.117776E2,-7.6243744E2,9.714469E2,-1.742004E2,-3.542286E2,-1.1713151E3,-2.421732E1,4.8149374E2,1.3461647E3,-8.486022E2,7.098578E1,1.5918958E3,-3.027442E2,1.3374423E3,-5.892774E1,5.446512E2],"categories":[],"categories_nodes":[],"categories_segments":[],"categories_sizes":[],"default_left":[0,0,0,0,0,0,0,0,0,0,0,0,0,0,0,0,0,0,0,0,0,0,0,0,0,0,0,0,0,0,0,0,0],"id":22,"left_children":[1,3,5,-1,-1,7,9,-1,-1,11,13,15,17,19,21,23,25,27,29,31,-1,-1,-1,-1,-1,-1,-1,-1,-1,-1,-1,-1,-1],"loss_changes":[8.4178726E8,9.756973E7,3.2225178E8,0E0,0E0,8.353258E7,2.6277405E8,0E0,0E0,2.9478115E8,7.196261E7,1.06595034E9,5.4419584E8,3.1162848E6,2.8756544E7,7.8745466E8,5.003387E8,2.5062656E9,3.7028182E8,5.285367E6,0E0,0E0,0E0,0E0,0E0,0E0,0E0,0E0,0E0,0E0,0E0,0E0,0E0],"parents":[2147483647,0,0,1,1,2,2,5,5,6,6,9,9,10,10,11,11,12,12,13,13,14,14,15,15,16,16,17,17,18,18,19,19],"right_children":[2,4,6,-1,-1,8,10,-1,-1,12,14,16,18,20,22,24,26,28,30,32,-1,-1,-1,-1,-1,-1,-1,-1,-1,-1,-1,-1,-1],"split_conditions":[1.963E3,8.6E1,1E0,5.9175566E3,1.9093744E3,1.88E2,8.87E2,4.1051895E2,4.2535986E3,7.42E2,1.53E2,7.4E2,7.6E1,2.012E3,2.011E3,7.24E2,1.8E0,6.4E1,2.022E3,2.011E3,-1.742004E2,-3.542286E2,-1.1713151E3,-2.421732E1,4.8149374E2,1.3461647E3,-8.486022E2,7.098578E1,1.5918958E3,-3.027442E2,1.3374423E3,-5.892774E1,5.446512E2],"split_indices":[2,0,3,0,0,0,1,0,0,1,0,1,3,2,2,1,4,3,2,2,0,0,0,0,0,0,0,0,0,0,0,0,0],"split_type":[0,0,0,0,0,0,0,0,0,0,0,0,0,0,0,0,0,0,0,0,0,0,0,0,0,0,0,0,0,0,0,0,0],"sum_hessian":[8E3,4E0,7.996E3,1E0,3E0,2E0,7.994E3,1E0,1E0,7.961E3,3.3E1,6.709E3,1.252E3,5E0,2.8E1,6.526E3,1.83E2,9.69E2,2.83E2,4E0,1E0,6E0,2.2E1,6.237E3,2.89E2,9E0,1.74E2,8.6E2,1.09E2,2.71E2,1.2E1,2E0,2E0],"tree_param":{"num_deleted":"0","num_feature":"5","num_nodes":"33","size_leaf_vector":"1"}},{"base_weights":[9.238501E0,1.1957346E4,3.2617981E0,5.0299316E3,1.4296508E3,1.28463955E1,-3.1817559E3,-4.223441E1,6.0191754E2,-2.4138296E3,-3.1266096E3,4.147407E1,-4.703542E2,-5.4840386E3,7.098603E2,-1.6943507E3,-5.4077666E3,-8.9554085E1,8.467731E2,-7.641761E2,5.3988716E3,-1.0651543E4,7.5138564E3,5.13013E3,4.2152286E2,4.8581223E2,-1.9539875E3,-2.0349996E3,-1.9216055E2,-8.898022E0,-3.39797E2,-1.4694014E2,4.16509E2,-2.9573035E2,1.1094672E3,9.972138E3,6.2476697E2,-7.48208E2,-5.003626E3,4.4426602E2,3.841915E3,-6.834049E1,3.073131E3,-8.228049E2,2.3692476E2,-6.638792E2,-2.3590822E2],"categories":[],"categories_nodes":[],"categories_segments":[],"categories_sizes":[],"default_left":[0,0,0,0,0,0,0,0,0,0,0,0,0,0,0,0,0,0,0,0,0,0,0,0,0,0,0,0,0,0,0,0,0,0,0,0,0,0,0,0,0,0,0,0,0,0,0],"id":23,"left_children":[1,3,5,-1,-1,7,9,11,13,15,-1,17,19,21,23,25,27,29,31,33,35,37,39,41,43,-1,45,-1,-1,-1,-1,-1,-1,-1,-1,-1,-1,-1,-1,-1,-1,-1,-1,-1,-1,-1,-1],"loss_changes":[5.713147E8,5.844448E7,2.4419674E8,0E0,0E0,2.5878637E8,1.0828296E8,2.6141646E8,4.519223E8,4.0381064E7,0E0,6.439396E8,2.0614627E9,8.860344E8,8.530464E8,2.0371536E7,2.18856E7,3.2790083E8,6.1886944E8,1.1279465E9,5.1936686E9,4.0090618E8,1.0875379E8,1.1256732E9,7.373717E8,0E0,4.004464E6,0E0,0E0,0E0,0E0,0E0,0E0,0E0,0E0,0E0,0E0,0E0,0E0,0E0,0E0,0E0,0E0,0E0,0E0,0E0,0E0],"parents":[2147483647,0,0,1,1,2,2,5,5,6,6,7,7,8,8,9,9,11,11,12,12,13,13,14,14,15,15,16,16,17,17,18,18,19,19,20,20,21,21,22,22,23,23,24,24,26,26],"right_children":[2,4,6,-1,-1,8,10,12,14,16,-1,18,20,22,24,26,28,30,32,34,36,38,40,42,44,-1,46,-1,-1,-1,-1,-1,-1,-1,-1,-1,-1,-1,-1,-1,-1,-1,-1,-1,-1,-1,-1],"split_conditions":[1.956E3,8.6E1,1.05E2,5.0299316E3,1.4296508E3,2.022E3,5.71E2,2.016E3,1.04E2,2.023E3,-3.1266096E3,2.014E3,8.22E2,2.023E3,2.38E2,1.967E3,3.82E2,3.2E2,3.3E1,4.05E2,8.27E2,5.8E1,1.85E2,1.79E2,2.82E2,4.8581223E2,4.8E0,-2.0349996E3,-1.9216055E2,-8.898022E0,-3.39797E2,-1.4694014E2,4.16509E2,-2.9573035E2,1.1094672E3,9.972138E3,6.2476697E2,-7.48208E2,-5.003626E3,4.4426602E2,3.841915E3,-6.834049E1,3.073131E3,-8.228049E2,2.3692476E2,-6.638792E2,-2.3590822E2],"split_indices":[2,0,3,0,0,2,0,2,1,2,0,2,1,2,1,2,1,0,3,0,1,0,0,1,1,0,4,0,0,0,0,0,0,0,0,0,0,0,0,0,0,0,0,0,0,0,0],"split_type":[0,0,0,0,0,0,0,0,0,0,0,0,0,0,0,0,0,0,0,0,0,0,0,0,0,0,0,0,0,0,0,0,0,0,0,0,0,0,0,0,0,0,0,0,0,0,0],"sum_hessian":[8E3,3E0,7.997E3,1E0,2E0,7.974E3,2.3E1,7.293E3,6.81E2,2.2E1,1E0,6.101E3,1.192E3,1.1E1,6.7E2,1.9E1,3E0,5.248E3,8.53E2,1.136E3,5.6E1,8E0,3E0,4E1,6.3E2,1E0,1.8E1,2E0,1E0,4.964E3,2.84E2,2.46E2,6.07E2,1.083E3,5.3E1,5E0,5.1E1,4E0,4E0,2E0,1E0,2E1,2E1,6.5E1,5.65E2,1.4E1,4E0],"tree_param":{"num_deleted":"0","num_feature":"5","num_nodes":"47","size_leaf_vector":"1"}},{"base_weights":[8.088991E0,9.076559E3,2.41806E0,4.27545E3,1.2659845E3,8.911542E3,-9.2525303E-1,3.502758E2,3.6599182E3,2.8195848E1,-9.886225E2,-1.1833387E2,2.3847324E2,-6.4489126E3,-7.8740204E2,-4.6730686E1,-5.5092744E3,-2.1415422E1,1.7927339E3,-3.793034E3,-3.7560098E3,-8.7458514E2,5.8684946E3,-4.0971115E1,2.4705875E2,-2.2043225E3,4.8550215E3,2.6218832E1,-8.321796E2,1.9549333E3,6.663201E1,-2.94294E2,-1.2294639E3,-1.90946E2,-1.4845759E3,2.9650664E3,-3.2424377E2],"categories":[],"categories_nodes":[],"categories_segments":[],"categories_sizes":[],"default_left":[0,0,0,0,0,0,0,0,0,0,0,0,0,0,0,0,0,0,0,0,0,0,0,0,0,0,0,0,0,0,0,0,0,0,0,0,0],"id":24,"left_children":[1,3,5,-1,-1,7,9,-1,-1,11,13,15,17,19,21,23,25,27,29,31,-1,33,35,-1,-1,-1,-1,-1,-1,-1,-1,-1,-1,-1,-1,-1,-1],"loss_changes":[4.114428E8,6.5522784E7,2.3820682E8,0E0,0E0,6.2146464E7,2.2998672E8,0E0,0E0,2.3934413E8,2.4652947E8,1.7668895E9,1.2885901E9,8.150435E7,1.3395509E8,3.5342538E8,2.5117873E9,8.190905E8,3.389122E9,1.986984E6,0E0,2.1025331E8,9.438792E7,0E0,0E0,0E0,0E0,0E0,0E0,0E0,0E0,0E0,0E0,0E0,0E0,0E0,0E0],"parents":[2147483647,0,0,1,1,2,2,5,5,6,6,9,9,10,10,11,11,12,12,13,13,14,14,15,15,16,16,17,17,18,18,19,19,21,21,22,22],"right_children":[2,4,6,-1,-1,8,10,-1,-1,12,14,16,18,20,22,24,26,28,30,32,-1,34,36,-1,-1,-1,-1,-1,-1,-1,-1,-1,-1,-1,-1,-1,-1],"split_conditions":[1.963E3,8.6E1,1E0,4.27545E3,1.2659845E3,1.88E2,9.9E1,3.502758E2,3.6599182E3,6.7E1,1E2,5.9E1,2.019E3,8.3E1,7.5E0,5.6E1,4.6E2,2.017E3,7.1E1,2.021E3,-3.7560098E3,3.33E2,2.013E3,-4.0971115E1,2.4705875E2,-2.2043225E3,4.8550215E3,2.6218832E1,-8.321796E2,1.9549333E3,6.663201E1,-2.94294E2,-1.2294639E3,-1.90946E2,-1.4845759E3,2.9650664E3,-3.2424377E2],"split_indices":[2,0,3,0,0,0,3,0,0,3,3,3,2,0,4,3,0,2,3,2,0,0,2,0,0,0,0,0,0,0,0,0,0,0,0,0,0],"split_type":[0,0,0,0,0,0,0,0,0,0,0,0,0,0,0,0,0,0,0,0,0,0,0,0,0,0,0,0,0,0,0,0,0,0,0,0,0],"sum_hessian":[8E3,4E0,7.996E3,1E0,3E0,2E0,7.994E3,1E0,1E0,7.766E3,2.28E2,4.577E3,3.189E3,7E0,2.21E2,4.518E3,5.9E1,2.733E3,4.56E2,6E0,1E0,2.19E2,2E0,4.096E3,4.22E2,5.5E1,4E0,2.63E3,1.03E2,1.13E2,3.43E2,1E0,5E0,2.08E2,1.1E1,1E0,1E0],"tree_param":{"num_deleted":"0","num_feature":"5","num_nodes":"37","size_leaf_vector":"1"}},{"base_weights":[6.825673E0,7.6382866E1,-6.065662E2,6.032264E1,3.2648936E3,-4.636628E3,-2.6858423E2,3.3628536E1,1.6651038E3,4.8711006E3,-4.808125E3,-1.1624689E4,-3.256679E3,6.5664414E3,-5.660286E2,9.2241254E2,-2.1506367E1,-1.9094873E3,3.47688E3,-2.699714E3,5.5641064E3,-3.1111877E2,-4.242589E3,1.6211222E3,-4.8428384E3,6.242977E2,-1.3064802E3,5.626234E2,1.2838518E4,-9.3256573E2,4.900018E1,-4.229486E2,-3.669201E3,1.7472683E3,8.088337E3,-1.6262098E3,6.4476646E3,-4.1295747E3,2.4083537E4,-6.5942227E3,1.2458743E3,-7.869326E3,7.726801E2,-1.4955074E3,1.6156289E4,-4.2438528E2,3.896329E2,7.342308E2,5.973325E3,-2.0340355E2,-7.5950964E2,1.7666709E3,6.97468E0,-6.4619495E2,4.915326E2,1.3541971E3,-3.525326E2,5.623516E2,3.5304124E3,1.2347444E3,2.8079338E3,-7.551617E2,-2.4382844E3,1.0403918E4,4.3367346E2,6.603559E2,-2.4913584E3,1.6615216E3,-5.608036E3,-2.666137E3,-5.697205E2,7.2710754E2,9.749905E1,-4.4807095E3,-3.8479245E2,8.42119E3,-3.4304608E2],"categories":[],"categories_nodes":[],"categories_segments":[],"categories_sizes":[],"default_left":[0,0,0,0,0,0,0,0,0,0,0,0,0,0,0,0,0,0,0,0,0,0,0,0,0,0,0,0,0,0,0,0,0,0,0,0,0,0,0,0,0,0,0,0,0,0,0,0,0,0,0,0,0,0,0,0,0,0,0,0,0,0,0,0,0,0,0,0,0,0,0,0,0,0,0,0,0],"id":25,"left_children":[1,3,5,7,9,11,13,15,17,19,-1,21,23,-1,25,27,29,31,33,-1,35,-1,-1,37,39,41,43,45,47,49,51,53,-1,55,57,-1,59,61,63,65,67,69,71,73,75,-1,-1,-1,-1,-1,-1,-1,-1,-1,-1,-1,-1,-1,-1,-1,-1,-1,-1,-1,-1,-1,-1,-1,-1,-1,-1,-1,-1,-1,-1,-1,-1],"loss_changes":[3.4141558E8,3.678365E8,1.1088566E9,3.063228E8,1.1935982E9,5.696618E8,4.974955E9,3.448051E8,7.643731E8,3.768828E8,0E0,2.5185344E8,4.2564723E8,0E0,6.565617E8,1.7548511E9,4.2567114E8,6.0854054E8,6.0799776E8,0E0,3.5523955E8,0E0,0E0,1.9078984E9,4.454263E8,3.6652736E8,1.5392922E9,5.840579E8,8.3316826E8,1.9204669E8,9.248799E8,1.31989336E8,0E0,4.7425786E8,4.5810714E8,0E0,1.7198605E8,5.689693E7,6.6949594E8,4.996503E8,9.594337E8,1.3505312E7,2.0764704E8,1.2825797E9,1.0626761E9,0E0,0E0,0E0,0E0,0E0,0E0,0E0,0E0,0E0,0E0,0E0,0E0,0E0,0E0,0E0,0E0,0E0,0E0,0E0,0E0,0E0,0E0,0E0,0E0,0E0,0E0,0E0,0E0,0E0,0E0,0E0,0E0],"parents":[2147483647,0,0,1,1,2,2,3,3,4,4,5,5,6,6,7,7,8,8,9,9,11,11,12,12,14,14,15,15,16,16,17,17,18,18,20,20,23,23,24,24,25,25,26,26,27,27,28,28,29,29,30,30,31,31,33,33,34,34,36,36,37,37,38,38,39,39,40,40,41,41,42,42,43,43,44,44],"right_children":[2,4,6,8,10,12,14,16,18,20,-1,22,24,-1,26,28,30,32,34,-1,36,-1,-1,38,40,42,44,46,48,50,52,54,-1,56,58,-1,60,62,64,66,68,70,72,74,76,-1,-1,-1,-1,-1,-1,-1,-1,-1,-1,-1,-1,-1,-1,-1,-1,-1,-1,-1,-1,-1,-1,-1,-1,-1,-1,-1,-1,-1,-1,-1,-1],"split_conditions":[3.01E2,3E2,2.6E0,4.3E0,8.3E1,3.11E2,3E0,3E0,5.8E1,1.04E2,-4.808125E3,2.016E3,3.2E2,6.5664414E3,2.013E3,8.56E2,2.4E1,2.012E3,2.013E3,-2.699714E3,2.008E3,-3.1111877E2,-4.242589E3,2.022E3,6.77E2,2.001E3,6.2E0,9.3E1,2.01E3,1.8E0,2.5E1,5.3E0,-3.669201E3,3.93E2,4.67E2,-1.6262098E3,3.58E2,2.021E3,2.023E3,2.25E2,2.023E3,6.2E0,3.2E2,3.06E2,3.58E2,-4.2438528E2,3.896329E2,7.342308E2,5.973325E3,-2.0340355E2,-7.5950964E2,1.7666709E3,6.97468E0,-6.4619495E2,4.915326E2,1.3541971E3,-3.525326E2,5.623516E2,3.5304124E3,1.2347444E3,2.8079338E3,-7.551617E2,-2.4382844E3,1.0403918E4,4.3367346E2,6.603559E2,-2.4913584E3,1.6615216E3,-5.608036E3,-2.666137E3,-5.697205E2,7.2710754E2,9.749905E1,-4.4807095E3,-3.8479245E2,8.42119E3,-3.4304608E2],"split_indices":[0,0,4,4,3,0,4,3,3,1,0,2,0,0,2,1,3,2,2,0,2,0,0,2,1,2,4,1,2,4,3,4,0,1,1,0,1,2,2,1,2,4,0,0,1,0,0,0,0,0,0,0,0,0,0,0,0,0,0,0,0,0,0,0,0,0,0,0,0,0,0,0,0,0,0,0,0],"split_type":[0,0,0,0,0,0,0,0,0,0,0,0,0,0,0,0,0,0,0,0,0,0,0,0,0,0,0,0,0,0,0,0,0,0,0,0,0,0,0,0,0,0,0,0,0,0,0,0,0,0,0,0,0,0,0,0,0,0,0,0,0,0,0,0,0,0,0,0,0,0,0,0,0,0,0,0,0],"sum_hessian":[8E3,7.186E3,8.14E2,7.151E3,3.5E1,6.2E1,7.52E2,7.035E3,1.16E2,3.3E1,2E0,9E0,5.3E1,9E0,7.43E2,4.1E2,6.625E3,3.9E1,7.7E1,1E0,3.2E1,2E0,7E0,1.3E1,4E1,2.85E2,4.58E2,3.99E2,1.1E1,4.75E2,6.15E3,3.5E1,4E0,5.7E1,2E1,2E0,3E1,1.1E1,2E0,3.1E1,9E0,4E0,2.81E2,4.54E2,4E0,1.08E2,2.91E2,5E0,6E0,4.11E2,6.4E1,2.6E1,6.124E3,1.9E1,1.6E1,2.9E1,2.8E1,8E0,1.2E1,1.8E1,1.2E1,9E0,2E0,1E0,1E0,5E0,2.6E1,8E0,1E0,3E0,1E0,5.9E1,2.22E2,6E0,4.48E2,2E0,2E0],"tree_param":{"num_deleted":"0","num_feature":"5","num_nodes":"77","size_leaf_vector":"1"}},{"base_weights":[5.8204284E0,3.6330752E3,2.7935932E0,-4.1658496E2,5.8623226E1,3.65126E1,-1.2581628E3,-2.987102E2,1.5620778E2,-1.5474163E3,1.6193564E2,-2.1044974E2,-1.9243162E3,6.499874E1,-7.9072186E2,6.5164514E2,2.7333841E1,2.6429858E2,-2.4620835E3,2.9107797E2,-9.1619946E2,-9.977689E2,-5.8005154E1,-1.7617325E3,-2.3835747E3,1.1021344E2,-6.4793584E3,-4.6128247E2,-2.0065209E3,8.8102893E2,-1.0425149E3,-2.1418243E2,3.8469727E2,-2.0417348E2,2.6978476E2,-1.4560042E3,-4.569878E2,7.314803E1,1.498735E3,-1.1996375E2,-7.862994E2,3.0580957E3,-6.726816E1,-5.476598E2,1.6114579E3,1.338734E1,1.1498079E3,-3.7669498E2,-2.181891E3,-1.9607033E2,4.0597757E2,-4.0304602E2,-2.081025E3,-1.7948105E2,3.7561603E2,-6.442455E1,-7.0511847E2,-1.8932323E2,7.106419E1,2.8776398E2,-4.3468334E1],"categories":[],"categories_nodes":[],"categories_segments":[],"categories_sizes":[],"default_left":[0,0,0,0,0,0,0,0,0,0,0,0,0,0,0,0,0,0,0,0,0,0,0,0,0,0,0,0,0,0,0,0,0,0,0,0,0,0,0,0,0,0,0,0,0,0,0,0,0,0,0,0,0,0,0,0,0,0,0,0,0],"id":26,"left_children":[1,-1,3,5,7,9,11,13,15,17,19,21,23,25,27,29,31,33,35,37,39,-1,41,43,-1,45,47,49,51,53,55,57,59,-1,-1,-1,-1,-1,-1,-1,-1,-1,-1,-1,-1,-1,-1,-1,-1,-1,-1,-1,-1,-1,-1,-1,-1,-1,-1,-1,-1],"loss_changes":[2.931077E8,0E0,1.8733443E8,3.5848384E8,2.462653E8,1.2183122E8,2.2921648E8,2.711592E8,3.5415245E8,7.522098E7,7.935096E7,6.107344E7,1.827625E8,2.5873992E8,2.5701709E8,4.4588026E8,3.8010128E8,1.0211738E7,5.9953824E7,1.11711784E8,5.264546E7,0E0,2.1358806E8,9.946086E7,0E0,2.1151014E8,1.5741264E7,1.7813046E8,4.3852115E8,5.545448E8,1.4781406E8,4.9433414E8,5.4050285E8,0E0,0E0,0E0,0E0,0E0,0E0,0E0,0E0,0E0,0E0,0E0,0E0,0E0,0E0,0E0,0E0,0E0,0E0,0E0,0E0,0E0,0E0,0E0,0E0,0E0,0E0,0E0,0E0],"parents":[2147483647,0,0,2,2,3,3,4,4,5,5,6,6,7,7,8,8,9,9,10,10,11,11,12,12,13,13,14,14,15,15,16,16,17,17,18,18,19,19,20,20,22,22,23,23,25,25,26,26,27,27,28,28,29,29,30,30,31,31,32,32],"right_children":[2,-1,4,6,8,10,12,14,16,18,20,22,24,26,28,30,32,34,36,38,40,-1,42,44,-1,46,48,50,52,54,56,58,60,-1,-1,-1,-1,-1,-1,-1,-1,-1,-1,-1,-1,-1,-1,-1,-1,-1,-1,-1,-1,-1,-1,-1,-1,-1,-1,-1,-1],"split_conditions":[1.939E3,3.6330752E3,2E3,2.92E2,1.08E2,3E0,1.26E2,4.93E2,1.46E2,2.1E0,7.5E1,3.2E2,2.38E2,2.5E0,1E2,8.11E2,6.36E2,1.994E3,1.997E3,2.5E2,1.32E2,-9.977689E2,3.93E2,1.02E2,-2.3835747E3,1.7E0,7.8E1,1.8E0,1.7E0,2.4E1,1.8E0,6.7E1,7.25E2,-2.0417348E2,2.6978476E2,-1.4560042E3,-4.569878E2,7.314803E1,1.498735E3,-1.1996375E2,-7.862994E2,3.0580957E3,-6.726816E1,-5.476598E2,1.6114579E3,1.338734E1,1.1498079E3,-3.7669498E2,-2.181891E3,-1.9607033E2,4.0597757E2,-4.0304602E2,-2.081025E3,-1.7948105E2,3.7561603E2,-6.442455E1,-7.0511847E2,-1.8932323E2,7.106419E1,2.8776398E2,-4.3468334E1],"split_indices":[2,0,2,1,0,3,0,1,0,4,3,1,0,4,0,1,1,2,2,1,0,0,1,3,0,4,0,4,4,3,4,3,1,0,0,0,0,0,0,0,0,0,0,0,0,0,0,0,0,0,0,0,0,0,0,0,0,0,0,0,0],"split_type":[0,0,0,0,0,0,0,0,0,0,0,0,0,0,0,0,0,0,0,0,0,0,0,0,0,0,0,0,0,0,0,0,0,0,0,0,0,0,0,0,0,0,0,0,0,0,0,0,0,0,0,0,0,0,0,0,0,0,0,0,0],"sum_hessian":[8E3,1E0,7.999E3,9.39E2,7.06E3,6.11E2,3.28E2,1.514E3,5.546E3,4.4E1,5.67E2,1.28E2,2E2,8.71E2,6.43E2,1.144E3,4.402E3,1.5E1,2.9E1,5.07E2,6E1,5E0,1.23E2,1.96E2,4E0,8.66E2,5E0,5.07E2,1.36E2,1.008E3,1.36E2,2.627E3,1.775E3,6E0,9E0,7E0,2.2E1,5.03E2,4E0,4.7E1,1.3E1,1E0,1.22E2,1.95E2,1E0,8.52E2,1.4E1,1E0,4E0,4.59E2,4.8E1,1.21E2,1.5E1,2.02E2,8.06E2,8.4E1,5.2E1,1.365E3,1.262E3,8.51E2,9.24E2],"tree_param":{"num_deleted":"0","num_feature":"5","num_nodes":"61","size_leaf_vector":"1"}},{"base_weights":[3.95036E0,6.7138525E3,-2.4539594E-1,3.0881064E3,9.7364154E2,9.8492584E1,-2.713932E2,7.985661E1,1.0998141E4,-7.959884E2,1.6939207E2,1.550869E2,-1.1000502E3,2.4657886E3,9.025511E3,-2.5214107E2,-1.9563179E3,4.6243848E2,-1.87105E3,-8.118266E1,8.029158E2,-2.002042E3,1.7462069E3,7.93004E2,2.1262922E3,-5.3997207E3,-2.0496284E2,-2.3615767E3,1.4148066E3,8.9166113E2,-3.6403394E2,-3.1003818E3,-4.1534012E2,5.56229E0,-2.9541302E2,1.2836438E4,2.1498804E2,4.014836E2,-9.250568E2,1.2489595E2,2.2365977E3,-4.9072516E2,4.4112646E2,-3.828267E1,-1.9285864E3,-8.132198E1,1.565076E3,-3.6736057E2,-1.4169371E3,6.737747E3,2.8955576E1,1.1774493E2,1.0357936E3,-9.343376E2,1.4058284E2,3.124521E2,-1.1795968E3,-3.340372E2,6.376713E2],"categories":[],"categories_nodes":[],"categories_segments":[],"categories_sizes":[],"default_left":[0,0,0,0,0,0,0,0,0,0,0,0,0,0,0,0,0,0,0,0,0,0,0,0,0,0,0,0,0,0,0,0,0,0,0,0,0,0,0,0,0,0,0,0,0,0,0,0,0,0,0,0,0,0,0,0,0,0,0],"id":27,"left_children":[1,3,5,-1,-1,7,9,11,13,15,17,19,21,23,-1,25,27,29,31,33,35,37,39,41,-1,43,45,47,49,51,53,55,57,-1,-1,-1,-1,-1,-1,-1,-1,-1,-1,-1,-1,-1,-1,-1,-1,-1,-1,-1,-1,-1,-1,-1,-1,-1,-1],"loss_changes":[2.2525469E8,2.867328E7,2.1412712E8,0E0,0E0,1.1900467E9,4.9381898E8,5.1979926E8,1.5543777E9,6.147728E8,6.950785E8,8.4251974E8,9.046185E8,5.623037E7,0E0,1.603909E8,4.2822246E8,3.607412E8,2.5998666E8,3.634939E8,5.298567E9,9.68662E8,6.422572E8,1.3922208E7,0E0,3.1726528E7,2.3798645E8,7.4069555E8,9.4107776E8,8.538857E8,7.984222E8,2.7620467E8,1.22988776E8,0E0,0E0,0E0,0E0,0E0,0E0,0E0,0E0,0E0,0E0,0E0,0E0,0E0,0E0,0E0,0E0,0E0,0E0,0E0,0E0,0E0,0E0,0E0,0E0,0E0,0E0],"parents":[2147483647,0,0,1,1,2,2,5,5,6,6,7,7,8,8,9,9,10,10,11,11,12,12,13,13,15,15,16,16,17,17,18,18,19,19,20,20,21,21,22,22,23,23,25,25,26,26,27,27,28,28,29,29,30,30,31,31,32,32],"right_children":[2,4,6,-1,-1,8,10,12,14,16,18,20,22,24,-1,26,28,30,32,34,36,38,40,42,-1,44,46,48,50,52,54,56,58,-1,-1,-1,-1,-1,-1,-1,-1,-1,-1,-1,-1,-1,-1,-1,-1,-1,-1,-1,-1,-1,-1,-1,-1,-1,-1],"split_conditions":[1.963E3,8.6E1,7.2E1,3.0881064E3,9.7364154E2,6.9E1,9.8E1,3.75E2,4.32E2,1.31E2,6.7E2,5.6E1,5.6E0,1.85E2,9.025511E3,2E-1,4.15E2,1.91E2,6.97E2,2.7E0,1E-1,4.01E2,7.18E2,1.22E2,2.1262922E3,2.012E3,2.022E3,2.013E3,1.37E2,2.018E3,3.09E2,1.53E2,2.02E3,5.56229E0,-2.9541302E2,1.2836438E4,2.1498804E2,4.014836E2,-9.250568E2,1.2489595E2,2.2365977E3,-4.9072516E2,4.4112646E2,-3.828267E1,-1.9285864E3,-8.132198E1,1.565076E3,-3.6736057E2,-1.4169371E3,6.737747E3,2.8955576E1,1.1774493E2,1.0357936E3,-9.343376E2,1.4058284E2,3.124521E2,-1.1795968E3,-3.340372E2,6.376713E2],"split_indices":[2,0,3,0,0,3,3,0,1,0,1,3,4,0,0,4,0,0,1,4,4,1,1,0,0,2,2,2,1,2,1,0,2,0,0,0,0,0,0,0,0,0,0,0,0,0,0,0,0,0,0,0,0,0,0,0,0,0,0],"split_type":[0,0,0,0,0,0,0,0,0,0,0,0,0,0,0,0,0,0,0,0,0,0,0,0,0,0,0,0,0,0,0,0,0,0,0,0,0,0,0,0,0,0,0,0,0,0,0,0,0,0,0,0,0,0,0,0,0,0,0],"sum_hessian":[8E3,4E0,7.996E3,1E0,3E0,5.862E3,2.134E3,5.853E3,9E0,9.74E2,1.16E3,5.503E3,3.5E2,7E0,2E0,6.64E2,3.1E2,1.015E3,1.45E2,4.033E3,1.47E3,2.66E2,8.4E1,6E0,1E0,5E0,6.59E2,2.77E2,3.3E1,6.68E2,3.47E2,7.8E1,6.7E1,3.633E3,4E2,2E0,1.468E3,6.5E1,2.01E2,6.9E1,1.5E1,1E0,5E0,1E0,4E0,6.52E2,7E0,1.88E2,8.9E1,1E0,3.2E1,5.6E2,1.08E2,8E1,2.67E2,1.3E1,6.5E1,5.3E1,1.4E1],"tree_param":{"num_deleted":"0","num_feature":"5","num_nodes":"59","size_leaf_vector":"1"}},{"base_weights":[7.0221004E0,6.156851E2,-4.1872395E1,5.088772E2,5.3582495E3,-9.681029E0,-1.1396895E3,6.3466986E2,